0.002000 0.004368 0.015601 0.010256 0.011590 0.005941 0.002847 0.014220 0.014227 0.018824 0.008903 0.011349 0.016957 0.002622 0.002962 0.011535 0.014081 0.002139 0.008901 0.003203 0.009515 0.014362 0.012602 0.018748 0.017231 0.011485 0.003655 0.013771 0.009488 0.014621 0.018386 0.015720 0.006724 0.002854 0.015249 0.007908 0.013387 0.015594 0.019810 0.008572 0.006433 0.019595 0.014959 0.015530 0.013590 0.003209 0.013369 0.017658 0.004705 0.008846 0.015797 0.010599 0.006280 0.006948 0.008467 0.004997 0.010757 0.018158 0.018366 0.003090 0.018284 0.011081 0.011293 0.007729 0.019703 0.010352 0.005909 0.001801 0.016517 -0.000745 0.001418 -0.004095 -0.002759 0.021470 0.010186 0.008880 0.017572 0.002930 0.015709 0.015852 0.016901 0.004257 0.002286 0.014392 0.017628 0.013332 0.015252 0.015057 0.019990 0.018156 0.006433 0.007428 0.007674 0.005694 0.002448 0.012198 0.007095 -0.004598 -0.050812 -0.025765 -0.022243 0.002372 -0.003080 -0.006632 -0.010546 0.006640 0.015975 0.002045 0.011378 0.010970 0.019196 0.015469 0.011983 0.018033 0.013247 0.017136 0.004833 0.006698 0.015444 0.004327 -0.001776 -0.002981 -0.006091 0.005007 -0.012193 -0.054833 -0.063819 -0.098106 -0.076599 -0.043358 -0.040619 -0.043152 -0.022116 0.007455 0.021025 0.023735 0.019391 0.008277 0.012542 0.017220 0.012622 0.019197 0.012011 0.004525 0.019600 0.009664 0.003178 0.011067 0.009741 0.004397 -0.021764 -0.018377 -0.080347 -0.094166 -0.085175 -0.112682 -0.102314 -0.091888 -0.084560 -0.045584 -0.013174 0.000667 0.021959 0.013992 0.007504 0.017504 0.009510 0.004544 0.019055 0.009386 0.004361 0.017936 0.001444 -0.007104 -0.014234 -0.000037 -0.021195 -0.070660 -0.074503 -0.107606 -0.109576 -0.086430 -0.072371 -0.109974 -0.096425 -0.096187 -0.101008 -0.085430 -0.035140 0.006051 0.004108 0.003795 -0.002135 -0.005631 0.012350 0.010284 0.019125 0.013389 0.009894 0.016789 0.000035 0.000041 -0.026882 -0.035688 -0.035651 -0.089231 -0.138996 -0.142635 -0.134737 -0.118157 -0.107287 -0.150343 -0.150638 -0.137079 -0.127965 -0.113352 -0.043224 -0.032837 -0.017577 -0.023972 -0.007899 -0.007507 0.010068 0.003173 0.014842 0.010801 0.014035 0.013830 0.002696 -0.016256 -0.039271 -0.046242 -0.066220 -0.096599 -0.124003 -0.093467 -0.107477 -0.132612 -0.153235 -0.189979 -0.172202 -0.177472 -0.140496 -0.100799 -0.056297 -0.051468 -0.019077 -0.026447 0.002063 0.010982 0.003683 0.002016 0.015920 0.015037 0.007752 0.009228 0.008324 -0.030156 -0.049627 -0.050656 -0.078455 -0.097563 -0.101532 -0.094827 -0.073839 -0.105354 -0.164150 -0.185595 -0.177400 -0.175273 -0.136845 -0.076216 -0.049394 -0.030688 -0.008073 -0.012362 0.005554 0.012929 0.010655 0.006438 0.005491 0.002038 0.005093 0.019111 -0.000955 -0.031675 -0.051081 -0.039860 -0.074623 -0.093177 -0.053193 -0.078008 -0.042068 -0.105160 -0.122573 -0.160093 -0.149968 -0.182167 -0.135417 -0.068103 -0.041367 -0.012330 -0.003835 -0.009849 -0.012411 0.005639 0.001358 0.007468 0.014597 0.003752 0.015187 0.009162 0.004405 -0.043662 -0.047576 -0.056354 -0.084621 -0.064734 -0.051146 -0.052872 -0.047816 -0.106236 -0.100823 -0.147096 -0.156063 -0.165154 -0.111236 -0.080326 -0.042965 -0.009609 -0.012796 -0.012689 0.001051 0.005457 0.009314 0.008981 0.007027 0.003187 0.008313 0.003629 0.008361 -0.027613 -0.045237 -0.052422 -0.068588 -0.057829 -0.074134 -0.071552 -0.098591 -0.118605 -0.131347 -0.153418 -0.140976 -0.153743 -0.074447 -0.076576 -0.026740 -0.007616 -0.005018 -0.002172 0.010131 0.001519 0.006934 0.013574 0.011830 0.018521 0.006770 0.016169 0.000446 0.007289 -0.030401 -0.055129 -0.079258 -0.110728 -0.087343 -0.094617 -0.130198 -0.143132 -0.170948 -0.156213 -0.154663 -0.128666 -0.104374 -0.067432 -0.037323 -0.013986 -0.005467 -0.009522 -0.005443 0.018023 0.016074 0.015440 0.009856 0.002114 0.012501 0.007037 -0.006283 0.004326 -0.038439 -0.063605 -0.084809 -0.095722 -0.060182 -0.077683 -0.116859 -0.153255 -0.162444 -0.198134 -0.164452 -0.113737 -0.080650 -0.065300 -0.044307 -0.008892 -0.022797 -0.013650 -0.003797 0.004569 0.015015 0.007346 0.002911 0.010600 0.010174 0.006244 0.002373 -0.010030 -0.035597 -0.072096 -0.119923 -0.117914 -0.085607 -0.089705 -0.102976 -0.128277 -0.168795 -0.190285 -0.134977 -0.116794 -0.067954 -0.043197 -0.049063 -0.013711 -0.005015 -0.012539 -0.007377 0.003665 0.019185 0.005161 0.008324 0.013054 0.012890 -0.000179 0.003600 -0.009890 -0.037693 -0.051885 -0.092605 -0.108032 -0.104708 -0.120960 -0.119659 -0.184919 -0.200832 -0.172807 -0.125588 -0.092785 -0.084739 -0.065476 -0.063330 -0.040638 -0.043795 -0.029263 -0.030533 0.003638 0.011725 0.009163 0.003485 0.014373 0.008690 0.014043 -0.017540 -0.037156 -0.053638 -0.046809 -0.056026 -0.100973 -0.103667 -0.107058 -0.136063 -0.185064 -0.185944 -0.149484 -0.119998 -0.088364 -0.062656 -0.094146 -0.098911 -0.059372 -0.034844 -0.026792 -0.022358 0.006933 0.005653 0.006017 0.013754 0.004987 0.015357 -0.003907 -0.009503 -0.032130 -0.049645 -0.029363 -0.042358 -0.082918 -0.071356 -0.126650 -0.144154 -0.171982 -0.175590 -0.146687 -0.152981 -0.116759 -0.095943 -0.093458 -0.101733 -0.060705 -0.040150 -0.029436 -0.016297 0.014278 0.005613 0.005007 0.008705 0.018915 0.019353 -0.004471 -0.010623 -0.042859 -0.034148 -0.051963 -0.056594 -0.101070 -0.094138 -0.115831 -0.159982 -0.196063 -0.180522 -0.134802 -0.156186 -0.109630 -0.072607 -0.079764 -0.064199 -0.034716 -0.030822 -0.004622 0.010497 0.010000 0.009229 0.006328 0.003496 0.009588 0.010486 -0.000328 -0.012473 -0.034973 -0.028522 -0.047222 -0.073700 -0.095149 -0.118949 -0.124346 -0.155271 -0.193205 -0.186452 -0.149207 -0.125217 -0.099873 -0.077843 -0.078126 -0.062208 -0.041899 -0.034618 -0.018814 0.016468 0.004275 0.016325 0.019029 0.005081 0.012908 0.003125 0.007652 -0.004062 -0.010463 -0.018004 -0.027169 -0.059960 -0.091736 -0.101959 -0.092009 -0.116698 -0.171364 -0.165519 -0.116926 -0.074383 -0.072458 -0.040634 -0.055561 -0.056150 -0.040719 -0.009087 -0.008375 0.006637 0.006412 0.014806 0.008811 0.005612 0.006187 0.009845 0.010220 0.014938 0.006008 -0.011412 -0.026066 -0.024987 -0.049855 -0.053101 -0.064541 -0.094302 -0.119472 -0.110375 -0.082381 -0.070180 -0.057715 -0.045590 -0.053305 -0.044046 -0.015569 -0.013221 -0.009696 0.015381 0.011949 0.010425 0.018774 0.014434 0.016677 0.011748 0.012296 0.004482 0.015184 0.002388 -0.018323 -0.041395 -0.035617 -0.026235 -0.035919 -0.073136 -0.095133 -0.074396 -0.054003 -0.047037 -0.053031 -0.037904 -0.034446 -0.033087 -0.012904 0.003664 0.003829 -0.000924 0.003535 0.018580 0.005990 0.008842 0.012548 0.005012 0.002431 0.014087 0.014556 0.011847 -0.006798 -0.009137 -0.022517 -0.026542 -0.054436 -0.042655 -0.018524 -0.031078 -0.029518 -0.023019 -0.022514 0.005263 -0.000798 0.016311 0.010913 0.004350 0.008804 0.011828 0.014007 0.003754 0.011877 0.012993 0.014023 0.010910 0.012288 0.012444 0.009369 0.003571 0.003765 0.000517 -0.013771 -0.021531 -0.031840 -0.026514 -0.009713 -0.002891 -0.006063 -0.003206 0.003972 0.020751 0.013381 0.017333 0.014992 0.010772 0.010755 0.013702 0.014546 0.009336 0.010763 0.010636 0.014788 0.011616 0.006980 0.012900 0.006876 0.015144 0.010991 0.014698 -0.002472 -0.000016 0.006939 0.013886 0.017564 0.008604 0.003985 -0.007295 -0.009896 0.000412 0.017104 0.005326 0.012917 0.001953 0.018841 0.006956 0.017458 0.007021 0.019144 0.011123 0.004213 0.009497 0.014644 0.009857 0.003939 0.017334 0.006086 0.010089 0.008158 0.007199 0.015413 0.007797 0.007705 0.002923 0.011266 0.008746 0.004675 0.003930 0.019530 0.017563 0.010853 0.008613 0.016488 0.004920 0.004872 0.003039 0.004687
0.010426 0.008851 0.017907 0.009634 0.009420 0.013723 0.007550 0.003083 0.016659 0.018158 0.018551 0.018222 0.015861 0.005074 0.012304 0.002565 0.016459 0.011400 0.017509 0.006990 0.017651 0.012564 0.009005 0.016614 0.011462 0.018918 0.009561 0.012438 0.015485 0.017854 0.008086 0.005412 0.015376 0.014941 0.017825 0.003312 0.014782 0.017795 0.008432 0.003611 0.004876 0.009352 0.003655 0.014096 0.011923 0.016490 0.017807 0.015594 0.011328 0.017173 0.017811 0.010756 0.004035 0.008795 0.008887 0.014376 0.004191 0.003383 0.004579 0.010598 0.014755 0.006284 0.009037 0.019546 0.013239 0.013641 0.017379 0.006653 0.014813 0.011988 0.000009 -0.009326 0.008437 0.020210 0.009240 0.009715 0.014065 0.018866 0.007416 0.004622 0.003980 0.003446 0.019505 0.009347 0.006291 0.019337 0.017003 0.005565 0.004331 0.005786 0.008550 0.012292 0.009137 0.007216 -0.000195 0.004765 0.006450 -0.010142 -0.049986 -0.028992 -0.008008 0.021881 0.006879 -0.001028 0.002750 0.011100 0.015890 0.008272 0.001966 0.010634 0.013503 0.013637 0.013608 0.016383 0.008793 0.008408 0.008950 0.009369 0.015507 0.004848 0.001691 0.003907 0.010837 0.001533 -0.010398 -0.041351 -0.067055 -0.060267 -0.039151 -0.040875 -0.059269 -0.064096 -0.019453 0.009759 0.013252 0.023829 0.007338 0.011620 0.008759 0.004806 0.015605 0.013988 0.002208 0.016187 0.011962 0.007828 0.008267 0.002243 0.002705 0.000296 0.000817 -0.006521 -0.039491 -0.064658 -0.061573 -0.080463 -0.059728 -0.083952 -0.066617 -0.068414 -0.007156 -0.001240 0.019670 0.020321 0.026398 0.011976 0.008501 0.010324 0.013301 0.019000 0.009304 0.002901 0.006355 -0.007851 -0.012670 -0.017235 -0.039047 -0.054549 -0.044411 -0.067156 -0.089074 -0.065396 -0.049421 -0.091254 -0.087912 -0.105759 -0.088106 -0.087769 -0.034501 -0.004797 -0.010306 -0.001311 -0.004830 -0.005896 0.014117 0.013541 0.008292 0.011628 0.013931 0.007737 -0.006433 -0.012719 -0.020730 -0.041838 -0.025230 -0.060156 -0.078938 -0.095860 -0.111230 -0.120448 -0.094770 -0.136803 -0.148841 -0.128469 -0.123160 -0.113892 -0.040802 -0.057122 -0.065786 -0.046790 -0.032676 -0.008351 0.006239 0.017048 0.012843 0.013218 0.017112 0.013431 0.005928 0.003326 -0.028137 -0.043199 -0.053481 -0.062498 -0.086595 -0.087599 -0.100349 -0.150987 -0.138268 -0.162871 -0.186776 -0.160042 -0.125722 -0.111867 -0.069672 -0.076405 -0.064704 -0.051245 -0.023098 0.016809 0.020889 0.012695 0.002594 0.014408 0.010797 0.011822 0.012835 -0.014584 -0.029562 -0.046470 -0.053938 -0.084732 -0.083780 -0.083115 -0.065598 -0.113778 -0.162740 -0.170567 -0.167630 -0.164857 -0.156467 -0.090112 -0.083431 -0.049102 -0.039975 -0.012551 -0.000681 0.003801 0.017266 0.010590 0.013806 0.010935 0.011114 0.003570 0.013985 -0.014070 -0.035819 -0.023837 -0.048789 -0.070088 -0.074714 -0.091073 -0.065786 -0.106225 -0.151952 -0.147334 -0.158359 -0.171385 -0.167018 -0.092743 -0.065084 -0.038035 -0.007666 -0.006995 -0.002648 -0.001126 0.002657 0.004858 0.006027 0.013737 0.008756 0.016061 0.009032 -0.026033 -0.031769 -0.037831 -0.060464 -0.067334 -0.079706 -0.088748 -0.074400 -0.130097 -0.123406 -0.140082 -0.126817 -0.158367 -0.128451 -0.101050 -0.066673 -0.004028 -0.011792 -0.010526 -0.007482 0.014507 0.002669 0.006793 0.010677 0.016057 0.006299 0.003566 0.004466 -0.022367 -0.048747 -0.053715 -0.092357 -0.112474 -0.106614 -0.094735 -0.114725 -0.140726 -0.136195 -0.140658 -0.131678 -0.162980 -0.091925 -0.085040 -0.030704 0.007305 -0.007008 -0.008210 -0.005061 0.007269 0.002318 0.018459 0.016138 0.009082 0.015113 0.014336 0.014123 -0.007374 -0.053592 -0.075399 -0.116133 -0.149295 -0.125508 -0.142986 -0.159066 -0.142873 -0.163758 -0.153096 -0.147870 -0.140778 -0.103379 -0.068996 -0.029923 0.007341 -0.001979 -0.001956 -0.008186 0.015646 0.006510 0.013017 0.017383 0.007663 0.012931 0.000700 0.001203 -0.018023 -0.078194 -0.094814 -0.112563 -0.117715 -0.101693 -0.097999 -0.117405 -0.155830 -0.173373 -0.196407 -0.178159 -0.136490 -0.082143 -0.075406 -0.042364 0.001645 -0.015706 -0.016672 0.005501 0.004036 0.016407 0.006095 0.009186 0.012785 0.013735 -0.001494 0.011955 -0.030551 -0.065039 -0.094623 -0.127925 -0.101971 -0.072926 -0.076846 -0.102052 -0.153086 -0.175402 -0.166507 -0.138886 -0.117042 -0.097095 -0.067487 -0.061806 -0.029151 -0.017644 -0.009197 -0.000636 0.016594 0.015838 0.012664 0.007972 0.013232 0.013686 0.009711 -0.002820 -0.046350 -0.045136 -0.074562 -0.103238 -0.102950 -0.112085 -0.125400 -0.123120 -0.182021 -0.176424 -0.157013 -0.110784 -0.077725 -0.090122 -0.065058 -0.044689 -0.016417 -0.005631 -0.000207 0.008319 0.017110 0.015210 0.015540 0.017116 0.010077 0.013441 0.012048 -0.000230 -0.037223 -0.061786 -0.053606 -0.068283 -0.125870 -0.149805 -0.121890 -0.138866 -0.175394 -0.162881 -0.153786 -0.106654 -0.047539 -0.038571 -0.053919 -0.058610 -0.043519 -0.014670 -0.011756 0.005187 0.002797 0.014395 0.009105 0.016131 0.015001 0.012327 0.007599 0.013823 -0.012557 -0.023590 -0.042707 -0.069154 -0.123037 -0.118009 -0.138018 -0.142295 -0.171164 -0.165234 -0.118994 -0.109587 -0.082551 -0.066841 -0.042849 -0.057341 -0.040984 -0.007280 0.007584 0.008614 0.005005 0.016223 0.005480 0.012813 0.011771 0.006514 -0.001618 0.007241 0.001416 -0.000906 -0.015037 -0.045837 -0.086553 -0.100249 -0.122548 -0.165538 -0.182164 -0.171965 -0.133272 -0.138108 -0.095628 -0.078073 -0.066284 -0.031540 -0.026303 -0.044403 -0.003902 0.011472 0.008801 0.012528 0.011998 0.010894 0.013061 0.018626 0.007590 -0.005220 -0.007446 -0.005954 -0.034436 -0.068249 -0.107279 -0.106867 -0.126348 -0.149426 -0.178172 -0.172602 -0.147863 -0.123528 -0.106550 -0.074057 -0.059029 -0.040009 -0.017533 -0.025890 -0.023790 0.015718 0.011419 0.019541 0.003084 0.010556 0.003982 0.019829 0.010808 0.006558 -0.010195 -0.013473 -0.037372 -0.074096 -0.084083 -0.106930 -0.100555 -0.104008 -0.142927 -0.156167 -0.122650 -0.079845 -0.074125 -0.036871 -0.022059 -0.024533 -0.013463 -0.023367 -0.027816 0.016116 0.012462 0.017335 0.003132 0.018661 0.019089 0.010393 0.006754 0.007892 -0.000011 -0.008508 -0.038578 -0.062844 -0.061142 -0.084887 -0.103054 -0.110944 -0.097213 -0.101334 -0.075742 -0.057618 -0.061113 -0.058514 -0.063602 -0.045829 -0.028693 -0.025985 -0.006653 0.009971 0.009714 0.007821 0.010405 0.007775 0.003686 0.017668 0.009995 0.004320 0.010993 -0.002197 -0.019434 -0.059201 -0.061551 -0.066797 -0.068337 -0.070492 -0.075605 -0.050486 -0.026575 -0.026656 -0.059290 -0.051474 -0.049339 -0.016910 -0.008183 0.004873 0.009860 0.001244 0.009746 0.016660 0.018859 0.012495 0.011880 0.010492 0.015511 0.007677 0.004219 0.006851 -0.003645 -0.002948 -0.024578 -0.068914 -0.084144 -0.061358 -0.009972 -0.008051 -0.020931 -0.022439 -0.028956 -0.012160 0.005651 0.005019 0.009156 0.008483 0.001128 0.006759 0.016078 0.006766 0.007541 0.005329 0.015619 0.013170 0.013616 0.007722 0.004336 0.004581 0.010812 0.008269 -0.003914 -0.007973 -0.035013 -0.027245 -0.006109 -0.003118 -0.002349 -0.025308 -0.016434 0.004662 0.007002 0.002517 0.006149 0.007920 0.013540 0.012842 0.002678 0.008032 0.003408 0.011793 0.010840 0.007182 0.006549 0.009908 0.013832 0.008790 0.004828 0.019342 -0.000805 0.002699 0.016697 0.008847 0.006944 0.011775 -0.014021 -0.020459 0.003882 0.012184 0.004239 0.001754 0.005071 0.009620 0.006368 0.007087 0.011886 0.017881 0.017330 0.014068 0.012037 0.015641 0.018236 0.017361 0.015675 0.008392 0.023205 0.006921 0.008701 0.007248 0.015151 0.019532 0.015512 0.009714 0.012671 0.008657 0.002967 0.005096 0.017529 0.011060 0.018758 0.018165 0.007241 0.013325 0.019557 0.011793 0.016952
0.002987 0.005413 0.019555 0.015774 0.017658 0.002582 0.011332 0.008758 0.019454 0.005477 0.006114 0.012745 0.018137 0.011891 0.003526 0.015986 0.015880 0.014751 0.002935 0.017904 0.003289 0.019904 0.006859 0.010996 0.014372 0.015472 0.019004 0.014415 0.018412 0.005082 0.016676 0.007091 0.010674 0.018395 0.014657 0.009188 0.005032 0.018223 0.005752 0.011867 0.008694 0.006637 0.016466 0.006212 0.013718 0.007939 0.011398 0.009882 0.010692 0.012985 0.002392 0.016746 0.008792 0.011752 0.019455 0.015433 0.016279 0.015657 0.010158 0.009321 0.006396 0.014641 0.005849 0.013888 0.009275 0.006452 0.007312 0.005576 0.011791 0.014957 0.006322 0.004248 -0.007410 0.022969 0.001639 0.007899 0.003568 0.016365 0.002212 0.012825 0.018586 0.003979 0.011810 0.003315 0.012017 0.008901 0.010666 0.009037 0.009356 0.012247 0.019221 0.014500 0.011953 -0.003373 -0.002904 0.003723 0.012308 -0.009323 -0.045175 -0.028505 -0.029702 -0.004074 -0.003378 0.002848 -0.010873 -0.000980 0.008972 0.013089 0.011279 0.003309 0.010459 0.008821 0.003779 0.010879 0.004391 0.005870 0.009844 0.009343 0.020572 0.018105 0.002803 0.000030 0.008792 0.014324 -0.007592 -0.054181 -0.068218 -0.097888 -0.068262 -0.039837 -0.047991 -0.058944 -0.022637 -0.002165 0.022335 0.024467 0.014343 0.007997 0.017390 0.006418 0.018081 0.016241 0.019356 0.006378 0.007007 0.012285 0.013672 0.009422 0.011821 -0.000324 -0.015624 -0.028221 -0.081995 -0.081555 -0.073094 -0.112819 -0.085279 -0.095462 -0.089130 -0.050676 -0.011011 -0.006685 0.026904 0.015046 0.019925 0.018741 0.014101 0.005718 0.012150 0.016952 0.007272 0.007503 0.017348 0.007485 -0.005243 -0.004327 -0.021468 -0.074702 -0.074147 -0.100987 -0.103730 -0.089503 -0.080441 -0.120872 -0.103017 -0.100784 -0.100776 -0.087095 -0.026413 -0.006941 0.001187 0.002237 0.002247 -0.010777 0.005995 0.017588 0.007989 0.012741 0.016028 0.019701 0.004566 0.002038 -0.030646 -0.043550 -0.038059 -0.085311 -0.133287 -0.139642 -0.121137 -0.113322 -0.097102 -0.152805 -0.142500 -0.138614 -0.136661 -0.121011 -0.045178 -0.035049 -0.013678 -0.015606 -0.019483 -0.008147 0.001855 0.013845 0.003653 0.012122 0.014241 0.013538 0.012564 -0.018561 -0.036938 -0.059219 -0.065544 -0.100123 -0.129496 -0.104610 -0.088610 -0.131940 -0.140124 -0.190564 -0.181766 -0.175288 -0.146326 -0.106599 -0.044295 -0.037119 -0.022078 -0.024930 0.004019 0.012146 0.011978 0.010531 0.005758 0.011062 0.018153 0.016714 0.013598 -0.022255 -0.035667 -0.064845 -0.090008 -0.106283 -0.087654 -0.077905 -0.068323 -0.104706 -0.158129 -0.179830 -0.170957 -0.173015 -0.142867 -0.090723 -0.043739 -0.033504 -0.020655 -0.003276 0.009787 0.000312 0.010572 0.016517 0.013404 0.018827 0.009335 0.018383 0.009324 -0.037115 -0.047020 -0.032368 -0.086502 -0.095249 -0.065825 -0.062207 -0.056739 -0.093670 -0.116229 -0.149532 -0.147397 -0.181487 -0.132460 -0.077066 -0.052258 -0.020294 -0.014650 -0.015467 -0.011557 -0.001518 0.004104 0.016563 0.018186 0.018992 0.016112 0.007089 0.009371 -0.038177 -0.042442 -0.062705 -0.079939 -0.061580 -0.046402 -0.048436 -0.049537 -0.117718 -0.104584 -0.151391 -0.142504 -0.161242 -0.112040 -0.087744 -0.046259 -0.006458 -0.012889 -0.017575 0.005510 0.008250 0.013145 0.003327 0.017834 0.005412 0.005534 0.012160 0.010522 -0.020605 -0.041060 -0.055042 -0.083586 -0.072365 -0.078229 -0.071473 -0.092239 -0.123954 -0.132927 -0.159976 -0.137864 -0.149317 -0.090248 -0.068286 -0.028707 -0.007557 -0.012610 0.000055 -0.006090 0.008701 0.011685 0.003841 0.013526 0.009844 0.002471 0.003042 0.002462 0.003604 -0.037702 -0.057535 -0.083220 -0.107045 -0.073151 -0.106036 -0.139727 -0.140629 -0.166000 -0.163539 -0.166297 -0.126623 -0.093282 -0.074848 -0.025133 -0.001397 0.001002 0.003057 -0.001601 0.005040 0.011958 0.011557 0.008317 0.015055 0.019473 0.002106 -0.004016 -0.001776 -0.034157 -0.056104 -0.087817 -0.088667 -0.058491 -0.087494 -0.112414 -0.149099 -0.158650 -0.196956 -0.164266 -0.119462 -0.063366 -0.062484 -0.042911 -0.021170 -0.024499 0.000126 -0.005542 0.012330 0.018990 0.016928 0.012226 0.005804 0.002495 0.007750 0.007049 -0.010679 -0.040682 -0.083744 -0.123665 -0.119484 -0.091922 -0.093686 -0.091747 -0.144756 -0.173336 -0.173511 -0.143292 -0.112972 -0.070118 -0.037411 -0.050266 -0.014724 -0.010860 -0.019684 0.001279 0.011621 0.014164 0.014150 0.016538 0.010259 0.015200 0.000788 0.000899 -0.027356 -0.035906 -0.054268 -0.097012 -0.103278 -0.100328 -0.119993 -0.119370 -0.190997 -0.204212 -0.176396 -0.129442 -0.092162 -0.078320 -0.065476 -0.057771 -0.028864 -0.035710 -0.032410 -0.019754 0.000932 0.017186 0.014961 0.011143 0.009365 0.010269 0.001839 -0.007652 -0.054098 -0.041884 -0.047336 -0.065374 -0.102974 -0.112419 -0.098453 -0.137267 -0.196328 -0.185111 -0.149868 -0.123904 -0.090671 -0.065991 -0.089368 -0.089749 -0.050104 -0.034829 -0.033568 -0.019325 0.012529 0.010841 0.008416 0.011041 0.004227 0.009442 0.006158 -0.010213 -0.033112 -0.049161 -0.033180 -0.040961 -0.088640 -0.081854 -0.112385 -0.145298 -0.172945 -0.167061 -0.136077 -0.144125 -0.119166 -0.097238 -0.087273 -0.093390 -0.071220 -0.035055 -0.021381 -0.008278 0.009639 0.016325 0.005148 0.010097 0.006212 0.002408 -0.001757 0.002930 -0.036809 -0.034904 -0.042397 -0.062817 -0.094970 -0.103118 -0.103861 -0.155610 -0.199544 -0.177712 -0.146958 -0.159056 -0.109297 -0.071906 -0.089044 -0.049359 -0.046444 -0.029378 -0.009445 0.015759 0.015876 0.002221 0.016353 0.012896 0.002310 0.011833 0.004310 -0.016598 -0.032450 -0.031865 -0.051748 -0.073819 -0.097159 -0.109751 -0.120723 -0.144793 -0.195768 -0.174120 -0.154504 -0.132885 -0.110157 -0.075996 -0.059993 -0.060367 -0.041190 -0.039072 -0.006722 0.000908 0.008646 0.012686 0.016468 0.009016 0.013662 0.016337 0.002502 0.006376 -0.010487 -0.015472 -0.037885 -0.060661 -0.094002 -0.105331 -0.099200 -0.100711 -0.157372 -0.168407 -0.131085 -0.064100 -0.075231 -0.052830 -0.049904 -0.045294 -0.037212 -0.010111 -0.015053 0.002863 0.007403 0.002406 0.019643 0.006110 0.013919 0.005977 0.018484 0.000303 0.001266 -0.014470 -0.016457 -0.030985 -0.049648 -0.053564 -0.070316 -0.099748 -0.121651 -0.108641 -0.082456 -0.061798 -0.045981 -0.050683 -0.052600 -0.051078 -0.014483 -0.018708 -0.008950 0.003110 0.004478 0.011181 0.016723 0.005968 0.011787 0.005454 0.005281 0.013229 0.014346 -0.003802 -0.014553 -0.038757 -0.034166 -0.024436 -0.024973 -0.080835 -0.093753 -0.076828 -0.063211 -0.053081 -0.054461 -0.043836 -0.039778 -0.016865 -0.010984 0.008254 0.003613 0.011316 0.012912 0.016289 0.018811 0.011289 0.016310 0.016564 0.007491 0.012056 0.006649 0.000602 -0.007448 -0.006714 -0.034383 -0.034945 -0.052800 -0.045876 -0.023789 -0.028628 -0.027698 -0.036082 -0.015738 0.003663 0.007525 0.010016 0.003994 0.004506 0.002271 0.007182 0.018718 0.004594 0.009153 0.017704 0.005526 0.015607 0.016424 0.017490 0.016287 0.006786 0.005794 -0.000785 -0.012216 -0.007622 -0.037632 -0.023466 0.002936 -0.001818 0.003511 -0.002560 0.000405 0.023710 0.005216 0.008601 0.005892 0.008884 0.010178 0.019179 0.019260 0.010680 0.005135 0.014331 0.011284 0.018318 0.012739 0.009207 0.015227 0.020192 0.008359 0.005211 0.011027 0.007687 -0.001770 0.002403 0.003097 0.010506 0.003299 -0.003045 -0.007358 0.004054 0.003386 0.005139 0.002913 0.002301 0.004172 0.014669 0.014839 0.003599 0.012432 0.018759 0.012578 0.012613 0.019916 0.012376 0.003163 0.008547 0.011201 0.006777 0.006245 0.016439 0.019468 0.006654 0.004185 0.002760 0.012478 0.010356 0.012794 0.011496 0.008310 0.018553 0.017828 0.003396 0.005089 0.017335 0.010702 0.019218 0.003728
0.012758 0.004215 0.009805 0.004168 0.009139 0.004414 0.013901 0.009589 0.014125 0.006641 0.010521 0.012259 0.016048 0.005367 0.006193 0.004779 0.013406 0.012811 0.010740 0.003749 0.002558 0.008179 0.016129 0.018506 0.009437 0.018763 0.006786 0.006418 0.009327 0.016401 0.004555 0.012562 0.012670 0.016613 0.014248 0.011296 0.016819 0.013836 0.011894 0.008898 0.015571 0.005408 0.004250 0.012041 0.012157 0.014527 0.012936 0.006483 0.013635 0.003094 0.008899 0.002921 0.004218 0.002851 0.004966 0.016292 0.008222 0.007042 0.017154 0.006017 0.004341 0.011146 0.006725 0.007372 0.007062 0.003423 0.010240 0.002646 0.016886 0.012409 0.008524 0.001450 -0.002337 0.008893 0.012570 0.003434 0.004198 0.014612 0.003996 0.003471 0.002675 0.004289 0.005344 0.006214 0.017250 0.017439 0.007234 0.008635 0.010616 0.005788 0.014209 0.014315 0.002093 0.009869 -0.004455 -0.002671 0.015909 -0.016300 -0.044095 -0.031248 -0.031547 0.009716 0.003738 -0.008236 -0.002208 0.013506 0.018345 0.017406 0.008241 0.007792 0.011721 0.005160 0.019376 0.004929 0.014959 0.019722 0.004853 0.014498 0.014490 0.018847 -0.002494 0.005614 -0.002840 0.006405 -0.002969 -0.065925 -0.073365 -0.097892 -0.074516 -0.043420 -0.043990 -0.039864 -0.007450 0.009095 0.013500 0.032135 0.020164 0.013522 0.009046 0.013794 0.011683 0.013231 0.008847 0.010374 0.018799 0.016176 0.014404 0.005816 0.019444 -0.001818 -0.016166 -0.023209 -0.064850 -0.092186 -0.089756 -0.121753 -0.098170 -0.092162 -0.094774 -0.044508 -0.006143 -0.006702 0.025339 0.021809 0.014577 0.019199 0.015649 0.012461 0.015907 0.002446 0.007521 0.010388 0.017141 -0.002319 -0.012372 -0.000878 -0.015271 -0.054329 -0.075739 -0.111563 -0.105819 -0.081464 -0.087394 -0.118969 -0.095213 -0.092176 -0.104825 -0.095834 -0.033724 0.006939 -0.000125 0.002345 -0.002243 -0.017154 0.003165 0.018921 0.019711 0.011057 0.018206 0.010772 -0.012017 -0.007442 -0.025791 -0.033551 -0.047667 -0.090980 -0.147286 -0.137918 -0.136686 -0.118931 -0.103469 -0.161869 -0.154204 -0.141596 -0.139898 -0.107726 -0.050647 -0.034335 -0.022859 -0.014146 -0.006364 -0.007488 0.010686 0.008694 0.014379 0.011693 0.009570 0.002351 0.013441 -0.030583 -0.035999 -0.049441 -0.061135 -0.086541 -0.130083 -0.098101 -0.111738 -0.130490 -0.150237 -0.197194 -0.181974 -0.169419 -0.134619 -0.101799 -0.062009 -0.043238 -0.025459 -0.011738 -0.005051 0.001108 0.014108 0.008532 0.019425 0.005111 0.016653 0.006465 0.011922 -0.031701 -0.051165 -0.055055 -0.071757 -0.098691 -0.100240 -0.082513 -0.079581 -0.118280 -0.165276 -0.187333 -0.170369 -0.179470 -0.149218 -0.073581 -0.049050 -0.025688 -0.003391 -0.011690 -0.007861 0.013199 0.014052 0.005436 0.009271 0.006627 0.010080 0.005031 0.000961 -0.034317 -0.035119 -0.035418 -0.079727 -0.086649 -0.055734 -0.078226 -0.056004 -0.094308 -0.126153 -0.154705 -0.144556 -0.188949 -0.133522 -0.076785 -0.048964 -0.023834 -0.005878 -0.008612 -0.000714 0.007482 0.011113 0.006393 0.009183 0.019569 0.004239 0.003192 -0.004046 -0.051226 -0.038582 -0.066012 -0.080677 -0.054242 -0.050142 -0.063600 -0.046536 -0.109761 -0.105310 -0.149379 -0.153041 -0.164196 -0.105187 -0.074804 -0.047176 -0.000451 -0.017604 -0.003550 -0.001301 0.013613 0.005284 0.019105 0.006329 0.018000 0.003734 0.005629 0.005155 -0.039526 -0.045437 -0.057584 -0.074654 -0.064285 -0.069998 -0.072462 -0.086502 -0.110470 -0.138050 -0.147395 -0.136479 -0.148575 -0.090482 -0.078008 -0.028554 -0.011439 -0.002721 0.000220 0.011754 0.016832 0.006700 0.012997 0.002439 0.011502 0.019231 0.005249 0.012118 0.001334 -0.024079 -0.056037 -0.079929 -0.102783 -0.083883 -0.102323 -0.137907 -0.136583 -0.170225 -0.157668 -0.164211 -0.140354 -0.101997 -0.069725 -0.025443 -0.006807 0.000089 0.003662 -0.005612 0.002270 0.008567 0.017446 0.008527 0.015143 0.013628 0.003512 -0.001917 -0.001054 -0.041202 -0.051287 -0.083787 -0.106320 -0.057378 -0.085982 -0.116029 -0.153905 -0.167245 -0.199857 -0.171555 -0.116608 -0.073070 -0.051454 -0.046604 -0.014842 -0.020689 -0.008012 0.001225 0.006644 0.013020 0.010132 0.019906 0.010932 0.017616 0.013407 0.008135 -0.004355 -0.038683 -0.080360 -0.118261 -0.125995 -0.080440 -0.077824 -0.091237 -0.129231 -0.164172 -0.173313 -0.131165 -0.113827 -0.066416 -0.049058 -0.055567 -0.022631 -0.012788 -0.012800 -0.003758 0.001473 0.004188 0.002345 0.003963 0.013067 0.005500 0.000041 -0.004943 -0.015257 -0.033006 -0.058191 -0.096567 -0.104094 -0.096020 -0.112869 -0.125379 -0.196560 -0.188957 -0.183876 -0.126123 -0.082569 -0.076468 -0.074358 -0.055545 -0.042986 -0.029102 -0.023132 -0.029127 0.011403 0.013278 0.002098 0.012814 0.006192 0.016465 0.001964 -0.015254 -0.052733 -0.050058 -0.037986 -0.048559 -0.100319 -0.108334 -0.106613 -0.130293 -0.179510 -0.185857 -0.156947 -0.122814 -0.096774 -0.060497 -0.090170 -0.098414 -0.052453 -0.041460 -0.034541 -0.027050 0.001937 0.008246 0.001957 0.017752 0.017512 0.005536 0.006243 -0.002658 -0.039786 -0.042456 -0.029875 -0.049794 -0.088389 -0.077256 -0.124396 -0.152310 -0.169351 -0.170217 -0.135654 -0.160470 -0.110958 -0.103365 -0.092712 -0.094887 -0.062363 -0.037459 -0.023678 -0.023685 0.016516 0.006162 0.003620 0.006477 0.017503 0.010074 0.001039 -0.001798 -0.037179 -0.030257 -0.055213 -0.061486 -0.098863 -0.093312 -0.114049 -0.154740 -0.185810 -0.185739 -0.131799 -0.158383 -0.109630 -0.085329 -0.086209 -0.068476 -0.043897 -0.023897 -0.007138 0.003255 0.009396 0.005455 0.003840 0.008139 0.009754 0.014229 0.003262 -0.007715 -0.027313 -0.036394 -0.042637 -0.077529 -0.102925 -0.111656 -0.128209 -0.160614 -0.193946 -0.180417 -0.144575 -0.116764 -0.106453 -0.067464 -0.073076 -0.064760 -0.044864 -0.033744 -0.004531 0.016928 0.009517 0.016706 0.014057 0.011640 0.005545 0.007439 0.015493 0.008293 -0.015181 -0.031981 -0.038572 -0.066226 -0.084437 -0.112136 -0.096859 -0.101398 -0.159469 -0.159544 -0.129132 -0.062473 -0.071422 -0.054276 -0.058388 -0.054969 -0.027749 -0.011972 -0.012728 0.007327 0.004477 0.013729 0.012692 0.004581 0.017029 0.018421 0.012611 0.012282 -0.007247 -0.017645 -0.016283 -0.026145 -0.036990 -0.052161 -0.069786 -0.105361 -0.110459 -0.110200 -0.089025 -0.063194 -0.048406 -0.047827 -0.059218 -0.048613 -0.022308 -0.017746 -0.002472 0.011579 0.011147 0.018479 0.004849 0.002672 0.014934 0.011193 0.009312 0.002684 -0.001457 -0.010650 -0.020274 -0.040103 -0.024926 -0.022416 -0.033565 -0.080941 -0.088131 -0.076770 -0.054798 -0.038061 -0.058916 -0.039842 -0.039819 -0.016824 -0.004797 0.001226 0.004238 0.001989 0.003777 0.018443 0.002839 0.005989 0.012941 0.006074 0.012177 0.004964 0.008395 0.002513 0.003213 -0.006093 -0.027363 -0.042978 -0.057939 -0.042080 -0.017673 -0.037758 -0.027519 -0.017247 -0.018381 0.013675 0.002400 0.008980 0.017913 0.016726 0.009847 0.010741 0.002482 0.010943 0.011968 0.015483 0.007224 0.008968 0.010955 0.009821 0.006884 0.017555 -0.005808 -0.007856 -0.001421 -0.005275 -0.034572 -0.031169 -0.009579 0.008876 0.000208 -0.001122 0.002774 0.017358 0.014611 0.000864 0.011016 0.007157 0.009329 0.016085 0.010922 0.011710 0.007309 0.011996 0.017544 0.008733 0.008012 0.004739 0.017423 0.020256 0.002953 0.002176 -0.007132 0.002486 0.011617 0.010854 0.002638 0.010873 0.005602 0.000600 -0.000946 0.001447 0.016176 0.003892 0.019089 0.013824 0.008232 0.015905 0.006159 0.012002 0.011889 0.007653 0.003608 0.012003 0.005578 0.009181 0.018735 0.005920 0.013165 0.003935 0.008483 0.012204 0.015371 0.008420 0.014000 0.003895 0.008893 0.016608 0.010952 0.018495 0.014968 0.013997 0.014593 0.002451 0.016124 0.006658 0.017454 0.004382 0.016222
0.004164 0.010306 0.015507 0.011085 0.002133 0.011211 0.012950 0.002306 0.007049 0.009811 0.005362 0.018864 0.018700 0.016021 0.009781 0.010898 0.003308 0.003446 0.013268 0.019010 0.002692 0.014741 0.009750 0.011164 0.009236 0.003423 0.006829 0.008609 0.006450 0.008699 0.017664 0.005132 0.010681 0.003728 0.003335 0.019191 0.006688 0.008977 0.005466 0.012994 0.019761 0.005400 0.012267 0.010134 0.004873 0.008471 0.002024 0.015467 0.006090 0.002788 0.010366 0.014457 0.019333 0.005968 0.013640 0.005184 0.018277 0.016602 0.017270 0.006431 0.002185 0.012221 0.010246 0.006752 0.011167 0.009493 0.017395 0.001428 0.006452 0.014751 0.002034 -0.001850 -0.007061 0.023800 0.002029 0.007033 0.010460 0.017313 0.010099 0.019291 0.010211 0.017449 0.002334 0.017620 0.017248 0.002119 0.003884 0.008362 0.002146 0.013499 0.014155 0.015319 0.012815 0.001613 0.003893 0.006053 -0.000500 -0.016752 -0.042181 -0.026675 -0.022147 -0.012868 -0.005259 -0.008223 -0.032541 -0.000820 0.004039 0.014399 0.009867 0.015951 0.017706 0.015168 0.014713 0.009395 0.016791 0.016615 0.017121 0.012526 0.009972 0.012614 0.004870 0.005967 0.008434 0.001699 0.007622 -0.034364 -0.053934 -0.086549 -0.055646 -0.039850 -0.084331 -0.088402 -0.031621 -0.005619 0.023620 0.024642 0.023524 0.008370 0.014612 0.013909 0.009586 0.002342 0.013037 0.010580 0.007728 0.004706 0.010037 0.005416 0.005539 -0.000518 -0.002743 -0.012344 -0.049774 -0.090574 -0.081950 -0.107208 -0.084332 -0.088542 -0.094647 -0.084376 -0.028730 -0.013856 0.033921 0.018307 0.022679 0.009828 0.010364 0.012227 0.002238 0.003465 0.007888 0.008841 0.003812 -0.000427 -0.001006 -0.016740 -0.035664 -0.071803 -0.065968 -0.093231 -0.106382 -0.082265 -0.073672 -0.108053 -0.112024 -0.104616 -0.120153 -0.110246 -0.049363 -0.006014 0.004522 0.008783 0.004312 -0.008651 0.004200 0.019426 0.011980 0.017948 0.012106 0.015620 -0.002979 -0.010164 -0.040817 -0.058438 -0.054896 -0.097537 -0.124742 -0.137508 -0.116949 -0.107253 -0.108554 -0.141379 -0.139072 -0.165061 -0.141718 -0.111697 -0.054485 -0.032688 -0.028533 -0.021041 -0.016108 -0.010247 0.005101 0.012422 0.019610 0.013523 0.003438 0.017989 0.001632 0.000370 -0.033394 -0.063919 -0.087888 -0.088246 -0.127136 -0.075426 -0.075095 -0.105979 -0.134936 -0.180846 -0.190063 -0.179840 -0.149929 -0.105223 -0.058235 -0.045668 -0.035505 -0.017642 0.001037 0.014279 0.015372 0.013182 0.007320 0.011858 0.019801 0.014072 0.000812 -0.007098 -0.039910 -0.060477 -0.097034 -0.098758 -0.092624 -0.074244 -0.055801 -0.094495 -0.155402 -0.200787 -0.190638 -0.186051 -0.152962 -0.088741 -0.064446 -0.038741 -0.024784 -0.002669 0.008554 0.004521 0.017013 0.017163 0.014306 0.016057 0.015151 0.005807 0.010506 -0.013532 -0.020906 -0.020973 -0.067569 -0.088749 -0.055022 -0.061111 -0.053083 -0.116167 -0.146414 -0.162306 -0.171154 -0.172240 -0.149221 -0.073354 -0.070536 -0.024242 -0.010070 -0.007846 -0.012314 0.004583 0.002433 0.013117 0.016570 0.002835 0.016127 0.007736 0.006519 -0.019451 -0.025825 -0.060549 -0.085427 -0.083718 -0.060813 -0.067650 -0.065041 -0.113662 -0.113706 -0.144940 -0.147820 -0.150747 -0.114526 -0.084845 -0.070456 -0.023220 -0.005209 -0.006543 0.006615 0.005631 0.013039 0.005806 0.008125 0.010027 0.011995 0.014319 0.014120 -0.025333 -0.037143 -0.064910 -0.110820 -0.086987 -0.072532 -0.091413 -0.111376 -0.133540 -0.126026 -0.141848 -0.136931 -0.142383 -0.077336 -0.078386 -0.056000 -0.026404 -0.009032 -0.005538 -0.005540 0.007371 0.006450 0.017072 0.016337 0.011633 0.010189 0.006312 0.014558 -0.009740 -0.048651 -0.086283 -0.113978 -0.112450 -0.075624 -0.103637 -0.131782 -0.122436 -0.167065 -0.147153 -0.158095 -0.133805 -0.077728 -0.070967 -0.041257 -0.010846 -0.016409 -0.007749 0.005741 0.015047 0.015756 0.005938 0.008069 0.012587 0.012429 0.013718 -0.003008 -0.000425 -0.053412 -0.082446 -0.090069 -0.095882 -0.063477 -0.073654 -0.107436 -0.145703 -0.164803 -0.185386 -0.162485 -0.124078 -0.060514 -0.083599 -0.077654 -0.023382 -0.030725 -0.018221 0.005759 0.004262 0.007875 0.019151 0.011770 0.008907 0.004368 0.013433 0.001547 -0.009373 -0.041971 -0.075763 -0.109775 -0.098406 -0.062334 -0.068129 -0.091205 -0.129006 -0.167791 -0.165637 -0.120903 -0.090605 -0.085859 -0.076895 -0.085110 -0.030984 -0.000797 -0.002759 -0.001557 0.006626 0.002395 0.005660 0.008946 0.018779 0.015852 -0.001827 -0.001282 -0.013596 -0.020551 -0.047832 -0.095989 -0.099297 -0.100225 -0.108567 -0.120055 -0.179133 -0.184965 -0.162979 -0.104863 -0.074169 -0.068902 -0.068055 -0.038136 -0.019674 -0.008155 -0.006024 -0.003566 0.015136 0.014867 0.011138 0.016320 0.006830 0.017715 0.013741 -0.028844 -0.033144 -0.035710 -0.039757 -0.068147 -0.119635 -0.132277 -0.101583 -0.111383 -0.185112 -0.168370 -0.137090 -0.098587 -0.069775 -0.027142 -0.058823 -0.055640 -0.025159 -0.007361 0.004318 0.006242 0.010226 0.011135 0.004116 0.011048 0.008962 0.009145 -0.017413 -0.020935 -0.014695 -0.024566 -0.044111 -0.063741 -0.115470 -0.115693 -0.123954 -0.145315 -0.173902 -0.176528 -0.134747 -0.128176 -0.108828 -0.084827 -0.061067 -0.043053 -0.050100 -0.011137 0.002467 0.009006 0.012896 0.002372 0.019718 0.010019 0.007460 0.003705 -0.012453 -0.028428 -0.028723 -0.017691 -0.035098 -0.063112 -0.089571 -0.108335 -0.107146 -0.155922 -0.189704 -0.180584 -0.164306 -0.184648 -0.117614 -0.080150 -0.089980 -0.048669 -0.053528 -0.045984 0.001607 0.004212 0.011370 0.018854 0.006281 0.016867 0.003196 0.003660 -0.008605 -0.028015 -0.030873 -0.024237 -0.039573 -0.067789 -0.105311 -0.118740 -0.118984 -0.143841 -0.186768 -0.194047 -0.170804 -0.150083 -0.109767 -0.092091 -0.066895 -0.055548 -0.036245 -0.033905 -0.008264 0.008828 0.008039 0.003982 0.018486 0.003009 0.011843 0.007176 0.019310 -0.022478 -0.024572 -0.017627 -0.040954 -0.072122 -0.086418 -0.108041 -0.108185 -0.107332 -0.150196 -0.178235 -0.131461 -0.075905 -0.072869 -0.037461 -0.029094 -0.044407 -0.023311 -0.007861 -0.010553 0.007089 0.006509 0.006307 0.010513 0.014131 0.016979 0.019996 0.018887 0.005049 -0.012265 -0.021161 -0.030377 -0.044227 -0.066384 -0.071208 -0.078998 -0.108296 -0.097169 -0.102572 -0.075933 -0.075623 -0.042420 -0.043195 -0.048253 -0.031007 -0.020303 -0.009949 -0.013335 -0.000296 0.009133 0.013672 0.007867 0.007334 0.008638 0.004697 0.012326 0.015805 0.013357 -0.001827 -0.009462 -0.029358 -0.035790 -0.023997 -0.024788 -0.060255 -0.081686 -0.063522 -0.056422 -0.051332 -0.039483 -0.031556 -0.033504 -0.023612 -0.011524 0.008620 0.008890 0.009072 0.016668 0.003975 0.003120 0.014690 0.004579 0.009299 0.016343 0.016133 0.004184 0.004409 0.002033 -0.002251 -0.034501 -0.034845 -0.066761 -0.045702 -0.017284 -0.020797 -0.011867 -0.018488 -0.035342 0.000862 0.007208 0.006305 0.017000 0.008162 0.006041 0.001525 0.009516 0.018259 0.009707 0.019188 0.002841 0.006822 0.010118 0.004140 0.003481 0.009917 0.011076 -0.006182 0.001733 -0.008096 -0.031296 -0.026958 -0.000185 -0.006471 -0.000873 -0.010264 -0.015900 0.015790 0.012047 0.009098 0.016935 0.014117 0.017475 0.013366 0.010540 0.004312 0.015121 0.002300 0.002260 0.005256 0.003816 0.011475 0.006035 0.008746 0.004453 0.016217 -0.004449 0.002278 0.000311 0.009190 0.008153 0.006344 -0.005629 -0.008688 -0.011196 0.003061 0.018064 0.000773 0.009154 0.017237 0.006031 0.011631 0.007772 0.017346 0.015711 0.008298 0.015774 0.014385 0.011739 0.012123 0.009047 0.009506 0.022428 0.009895 0.006431 0.011233 0.012021 0.014592 0.006321 0.006939 0.012564 0.003896 0.009798 0.018809 0.005112 0.018340 0.016786 0.018301 0.014692 0.012912 0.012447 0.007419 0.004568
0.012132 0.009187 0.006191 0.019182 0.017491 0.007419 0.013661 0.008287 0.015751 0.019919 0.016607 0.012872 0.019987 0.016109 0.005467 0.014150 0.017186 0.015503 0.010674 0.006441 0.016020 0.019232 0.012755 0.004543 0.003125 0.011272 0.011557 0.019059 0.003566 0.012998 0.018775 0.002799 0.005939 0.016623 0.005967 0.014853 0.009148 0.010713 0.019590 0.008654 0.011120 0.006722 0.009253 0.017399 0.004139 0.004957 0.016947 0.014881 0.008923 0.018790 0.018166 0.014763 0.007944 0.019849 0.005392 0.006879 0.018031 0.006729 0.018129 0.018111 0.005273 0.003867 0.005286 0.008596 0.009129 0.016573 0.001370 0.013196 0.009606 0.014944 0.008250 0.002667 -0.002091 0.014368 0.004630 0.017317 0.014244 0.006942 0.015834 0.003851 0.008972 0.012319 0.008543 0.007374 0.003039 0.004273 0.002181 0.009419 0.008653 0.004910 0.004171 0.009744 0.015777 0.001028 0.004710 0.001693 0.018004 -0.021908 -0.074008 -0.052426 -0.038229 -0.005704 -0.000907 -0.003118 0.000759 0.010367 0.004108 0.004838 0.015681 0.015922 0.009361 0.015446 0.005710 0.008728 0.013721 0.008421 0.001951 0.004543 0.007718 0.003722 0.005285 -0.002403 0.000466 0.005873 0.008188 -0.078676 -0.093048 -0.114276 -0.078057 -0.050285 -0.042199 -0.034842 -0.005590 0.008115 0.019924 0.033624 0.022197 0.025133 0.009839 0.017426 0.005320 0.007391 0.016536 0.016707 0.005574 0.013072 0.007950 0.004632 -0.000632 -0.001959 -0.010698 -0.014794 -0.075181 -0.098896 -0.105464 -0.129350 -0.115475 -0.117924 -0.074830 -0.040378 0.006019 0.014953 0.027980 0.016841 0.007361 0.001689 0.016010 0.010288 0.007234 0.010966 0.013517 0.018832 0.010510 0.006728 -0.003800 -0.007510 -0.009820 -0.045375 -0.072905 -0.103856 -0.121954 -0.109898 -0.106497 -0.123990 -0.121753 -0.088002 -0.091487 -0.105697 -0.037350 0.003413 -0.001781 -0.008941 -0.005500 -0.016948 0.007630 0.013307 0.004794 0.007025 0.013830 0.019794 -0.001366 0.005816 -0.030215 -0.034328 -0.034390 -0.078831 -0.145851 -0.161765 -0.144062 -0.133834 -0.120040 -0.162644 -0.160738 -0.134082 -0.124372 -0.128802 -0.080264 -0.051736 -0.024560 -0.020750 -0.005600 -0.010050 0.012239 0.007467 0.003360 0.009502 0.015772 0.014302 0.010457 -0.007509 -0.030730 -0.041230 -0.057471 -0.098048 -0.147568 -0.113486 -0.111846 -0.119627 -0.138920 -0.196931 -0.192803 -0.156699 -0.120668 -0.122361 -0.089937 -0.070553 -0.033636 -0.012342 -0.004220 0.020845 0.019998 0.011720 0.004002 0.015385 0.004371 0.010972 -0.003046 -0.024871 -0.023446 -0.040850 -0.086104 -0.108021 -0.104374 -0.092893 -0.064709 -0.107107 -0.158440 -0.172290 -0.158007 -0.149105 -0.113220 -0.072484 -0.071327 -0.045510 -0.017086 -0.009594 -0.003646 0.017106 0.019891 0.019147 0.013785 0.011324 0.008316 0.015713 0.001181 -0.029840 -0.030765 -0.045165 -0.068320 -0.081723 -0.049261 -0.076738 -0.061877 -0.115900 -0.125197 -0.143739 -0.144074 -0.147886 -0.110197 -0.079840 -0.072040 -0.033283 -0.027300 -0.012620 -0.011478 -0.003830 0.005679 0.018877 0.013220 0.016132 0.003194 0.018240 0.006193 -0.031821 -0.055407 -0.047321 -0.073084 -0.042880 -0.056801 -0.068622 -0.065475 -0.116019 -0.111021 -0.147156 -0.144415 -0.126828 -0.095200 -0.105027 -0.058459 -0.026039 -0.026764 -0.003394 0.001930 0.011665 0.005301 0.004682 0.009379 0.010569 0.003942 0.017230 -0.001536 -0.025225 -0.051782 -0.058883 -0.081422 -0.069155 -0.080258 -0.088975 -0.091096 -0.115967 -0.134021 -0.163218 -0.119780 -0.119893 -0.085267 -0.091997 -0.059797 -0.022316 -0.021972 -0.000122 0.006267 0.003762 0.004539 0.018958 0.017311 0.013258 0.009334 0.016549 0.005588 -0.023385 -0.041672 -0.054374 -0.089717 -0.108937 -0.080539 -0.086538 -0.114733 -0.134511 -0.169954 -0.157602 -0.145831 -0.123513 -0.111241 -0.109898 -0.078255 -0.024048 -0.010988 0.005698 0.009677 0.015415 0.016212 0.005752 0.015008 0.002999 0.005470 0.003375 -0.001916 -0.016493 -0.052747 -0.057780 -0.080424 -0.103189 -0.072084 -0.055906 -0.104784 -0.136482 -0.162226 -0.173079 -0.161180 -0.107261 -0.100275 -0.086066 -0.088880 -0.043626 -0.023717 -0.012343 0.009110 0.015175 0.004525 0.015432 0.013843 0.014660 0.011762 0.007158 -0.020288 -0.021763 -0.034246 -0.075593 -0.102351 -0.121439 -0.099529 -0.065066 -0.064023 -0.125623 -0.175925 -0.167218 -0.133323 -0.088732 -0.075741 -0.058318 -0.071910 -0.029022 -0.012218 -0.028948 0.001640 0.002940 0.006954 0.014471 0.019025 0.008571 0.004651 0.000334 -0.017636 -0.019256 -0.038323 -0.060878 -0.082554 -0.101868 -0.095989 -0.101785 -0.092381 -0.144949 -0.164744 -0.158738 -0.109365 -0.083272 -0.067331 -0.076093 -0.069801 -0.036431 -0.026135 -0.029309 0.000757 0.011734 0.005796 0.007732 0.011155 0.009082 0.005969 0.003777 -0.031327 -0.039994 -0.051588 -0.048391 -0.060607 -0.093543 -0.109045 -0.099894 -0.128205 -0.150123 -0.157491 -0.132990 -0.104411 -0.095667 -0.068165 -0.083446 -0.090453 -0.052612 -0.040026 -0.023293 -0.007705 0.009773 0.018538 0.014786 0.004704 0.012027 0.012959 0.004543 -0.015719 -0.043479 -0.044729 -0.042658 -0.069171 -0.102611 -0.098176 -0.144117 -0.143470 -0.177068 -0.177724 -0.123665 -0.144391 -0.138912 -0.094179 -0.073367 -0.089855 -0.060664 -0.047049 -0.028467 -0.004741 0.018039 0.010022 0.004436 0.013512 0.009830 0.002548 0.003132 -0.015409 -0.042978 -0.044051 -0.054210 -0.063673 -0.086705 -0.111361 -0.139812 -0.183927 -0.214445 -0.204667 -0.132225 -0.143658 -0.136412 -0.087546 -0.093660 -0.059063 -0.035789 -0.038862 -0.005530 0.015453 0.002727 0.016679 0.002948 0.017601 0.009086 0.005875 0.011464 0.007307 -0.023076 -0.052976 -0.054502 -0.084890 -0.104973 -0.125918 -0.155439 -0.171655 -0.201554 -0.189329 -0.136359 -0.120508 -0.140267 -0.093793 -0.079743 -0.061621 -0.030628 -0.019882 -0.016970 0.015337 0.012497 0.010043 0.016561 0.004379 0.017490 0.007201 0.011626 -0.001230 0.001035 -0.014388 -0.026283 -0.078990 -0.100076 -0.130125 -0.132577 -0.111604 -0.161479 -0.133875 -0.119974 -0.071719 -0.098911 -0.068536 -0.058806 -0.033990 -0.006919 -0.009811 -0.003690 0.002386 0.017137 0.002047 0.003026 0.007114 0.015247 0.014371 0.016426 0.003696 0.003476 0.003199 -0.007641 -0.023081 -0.045296 -0.068812 -0.096287 -0.093999 -0.105859 -0.091008 -0.092085 -0.069498 -0.055474 -0.047475 -0.035852 -0.035865 -0.006834 -0.012593 -0.008300 0.004060 0.012733 0.013865 0.006161 0.005076 0.010093 0.018129 0.015709 0.012306 0.001601 0.001581 -0.002667 -0.030541 -0.038768 -0.032554 -0.042189 -0.066018 -0.065020 -0.067145 -0.061237 -0.034850 -0.055726 -0.035486 -0.025772 -0.020991 -0.003980 -0.003308 -0.000582 0.012370 0.016755 0.003168 0.007543 0.010920 0.005711 0.002784 0.013762 0.002755 0.005829 0.007028 0.011525 -0.017494 -0.033587 -0.047509 -0.076169 -0.064034 -0.022906 -0.030756 -0.017016 -0.008165 -0.031494 -0.008387 0.008483 0.012410 0.017161 0.016679 0.007542 0.009161 0.003039 0.017618 0.002028 0.005822 0.012247 0.011438 0.014576 0.003258 0.003509 0.007018 -0.001973 -0.015154 -0.015209 -0.022403 -0.040590 -0.031383 -0.002500 0.006205 0.013255 0.013941 -0.014776 0.020058 0.004063 0.006874 0.002988 0.008603 0.014272 0.006087 0.015025 0.015590 0.007651 0.008443 0.019586 0.013803 0.003167 0.019368 0.013859 0.002397 0.005040 -0.002595 -0.009495 -0.010346 0.008980 0.006662 0.014228 0.000988 -0.002755 -0.002954 -0.000551 0.000358 0.007979 0.017131 0.001272 0.016815 0.011259 0.015357 0.016158 0.015773 0.006390 0.012579 0.004879 0.017636 0.019710 0.003544 0.006029 0.013427 0.009879 0.008133 0.011335 0.014465 0.011083 0.008087 0.015435 0.005805 0.004329 0.004812 0.012403 0.018432 0.016733 0.005109 0.017857 0.018837 0.014862 0.005459 0.015098 0.013032 0.011456
0.003397 0.019291 0.014645 0.003411 0.007597 0.010861 0.015484 0.017822 0.011022 0.014750 0.011472 0.011226 0.003860 0.008516 0.002474 0.018904 0.014037 0.016831 0.017577 0.017345 0.017593 0.012537 0.018882 0.014454 0.011186 0.012189 0.016918 0.014452 0.019482 0.010571 0.006351 0.002279 0.010984 0.005268 0.010902 0.004865 0.015450 0.009382 0.008442 0.006582 0.018777 0.010732 0.013572 0.018963 0.008356 0.012199 0.011168 0.016408 0.017409 0.010636 0.019132 0.003913 0.013839 0.006603 0.006109 0.003028 0.013524 0.016663 0.009994 0.019151 0.018145 0.010835 0.007702 0.015268 0.016847 0.011438 0.016421 0.008556 0.003637 -0.003332 -0.006544 -0.014602 -0.007452 0.018302 0.010504 0.014234 0.010310 0.013522 0.010549 0.011438 0.003179 0.015254 0.016106 0.008938 0.002782 0.011876 0.016897 0.017576 0.017678 0.012533 0.008637 0.004843 0.015771 0.002918 -0.003067 0.000059 -0.002647 -0.025276 -0.067962 -0.039059 -0.021928 0.009220 0.015152 0.021410 0.017457 0.005133 0.017299 0.012499 0.018391 0.003448 0.008208 0.014178 0.007555 0.014628 0.005026 0.017786 0.018537 0.020115 0.007512 0.018122 0.002403 -0.013497 -0.005421 -0.011657 -0.020228 -0.055905 -0.071408 -0.088427 -0.056898 -0.026622 -0.002784 -0.013467 0.001782 -0.004068 0.014720 0.019669 0.018524 0.016160 0.007875 0.009298 0.017585 0.003358 0.003637 0.015147 0.004470 0.012230 0.016321 -0.005554 -0.008536 -0.006454 -0.020079 -0.030260 -0.067071 -0.073051 -0.089721 -0.101300 -0.101660 -0.076619 -0.061952 -0.040586 -0.018752 -0.007027 0.019755 -0.003510 0.004305 0.008009 0.018711 0.019538 0.007754 0.013220 0.016253 0.013453 0.010075 0.013196 0.001764 -0.006888 -0.006706 -0.033532 -0.044390 -0.098501 -0.110551 -0.109328 -0.079537 -0.084965 -0.109811 -0.090328 -0.093816 -0.113679 -0.076385 -0.013678 -0.001206 -0.014627 -0.003507 -0.012885 0.015937 0.011350 0.003207 0.014041 0.011610 0.016306 -0.001111 0.005428 -0.030314 -0.037480 -0.046621 -0.074189 -0.132269 -0.166449 -0.154463 -0.143074 -0.100650 -0.139964 -0.159992 -0.131788 -0.125186 -0.126732 -0.086968 -0.075086 -0.018414 -0.014406 -0.008008 -0.012548 0.010839 0.003398 0.018235 0.011747 0.006759 0.018006 0.005795 -0.020015 -0.038450 -0.046078 -0.059335 -0.093745 -0.144731 -0.136705 -0.133651 -0.137853 -0.152818 -0.157362 -0.164860 -0.141159 -0.091264 -0.092993 -0.086034 -0.074556 -0.024708 0.005486 0.010331 0.026687 0.026576 0.015110 0.005867 0.013500 0.015720 0.012995 0.001797 -0.024108 -0.040675 -0.053857 -0.079547 -0.100935 -0.116656 -0.110930 -0.084518 -0.103581 -0.144308 -0.172718 -0.155945 -0.122280 -0.073110 -0.054954 -0.089552 -0.041367 -0.030844 -0.004576 0.015609 0.026756 0.011406 0.009621 0.005229 0.018988 0.017266 0.007468 -0.009194 -0.026411 -0.041110 -0.037973 -0.060207 -0.063931 -0.082271 -0.104588 -0.062126 -0.116679 -0.128345 -0.157552 -0.145369 -0.135210 -0.091640 -0.066282 -0.059342 -0.050570 -0.036883 -0.038269 -0.010667 -0.001465 0.013055 0.014200 0.017133 0.015945 0.001612 0.009851 -0.012442 -0.034929 -0.036808 -0.043561 -0.061885 -0.044887 -0.077752 -0.098104 -0.094716 -0.112378 -0.123690 -0.160837 -0.159619 -0.143448 -0.114741 -0.100845 -0.058410 -0.022577 -0.025500 -0.027039 -0.000529 0.006719 0.012341 0.019199 0.016913 0.010982 0.006240 0.001524 -0.005920 -0.028269 -0.052542 -0.037206 -0.057680 -0.060424 -0.100095 -0.127828 -0.127294 -0.137740 -0.143537 -0.174337 -0.144733 -0.142832 -0.103039 -0.100485 -0.027154 -0.013181 -0.020061 -0.005140 -0.002139 0.001312 0.017545 0.007829 0.019615 0.017173 0.015838 0.003686 0.005132 -0.007211 -0.038550 -0.038809 -0.074897 -0.098769 -0.093922 -0.114053 -0.145942 -0.157385 -0.158857 -0.160499 -0.166588 -0.124536 -0.123221 -0.123579 -0.078471 -0.016408 -0.014268 -0.007566 -0.007945 0.012807 0.008782 0.002744 0.011780 0.012845 0.010411 0.012139 -0.004328 -0.018592 -0.038719 -0.057563 -0.077044 -0.109970 -0.074334 -0.083758 -0.121131 -0.151602 -0.154601 -0.185516 -0.152411 -0.115375 -0.106921 -0.117477 -0.093615 -0.036723 -0.016748 -0.023518 -0.001832 0.018938 0.008423 0.002795 0.008127 0.016662 0.014397 0.007616 0.001418 -0.012958 -0.018678 -0.063775 -0.102491 -0.114780 -0.101641 -0.076073 -0.070872 -0.126925 -0.187616 -0.165241 -0.158556 -0.095109 -0.081084 -0.080573 -0.085863 -0.019275 -0.011218 -0.023698 0.003730 0.017660 0.013925 0.004635 0.004242 0.009048 0.014228 0.010973 0.003716 -0.017886 -0.015947 -0.045079 -0.089975 -0.102541 -0.106982 -0.111263 -0.099342 -0.157030 -0.158511 -0.169404 -0.137655 -0.084354 -0.079002 -0.057812 -0.048626 -0.020630 -0.015651 -0.023934 -0.003440 0.000540 0.006199 0.018208 0.007918 0.014725 0.002560 0.001892 -0.016927 -0.022263 -0.024527 -0.029115 -0.063822 -0.090836 -0.118270 -0.108230 -0.131427 -0.162697 -0.161535 -0.120428 -0.115343 -0.098433 -0.061228 -0.046234 -0.055304 -0.044373 -0.020305 -0.011975 -0.007057 0.003170 0.005792 0.015460 0.012501 0.018865 0.004416 0.002672 -0.010569 -0.012954 -0.029389 -0.046468 -0.067295 -0.079339 -0.090806 -0.133458 -0.136864 -0.176053 -0.156485 -0.107764 -0.131216 -0.105877 -0.085183 -0.058827 -0.069539 -0.056743 -0.022442 -0.003091 0.005522 0.018519 0.006830 0.004948 0.003420 0.017297 0.010642 0.004902 -0.003030 -0.000224 -0.011337 -0.050637 -0.070357 -0.063840 -0.101289 -0.130020 -0.171760 -0.210404 -0.215313 -0.133540 -0.127823 -0.114004 -0.077484 -0.087271 -0.069056 -0.034555 -0.034209 0.000222 0.001167 0.017880 0.017293 0.013091 0.015682 0.009873 0.005001 0.016781 0.008701 -0.005094 -0.027329 -0.045648 -0.062339 -0.061726 -0.108028 -0.162908 -0.178636 -0.207507 -0.209088 -0.109736 -0.116800 -0.119821 -0.103072 -0.076322 -0.043226 -0.035123 -0.016399 -0.007569 0.006567 0.002891 0.005126 0.018328 0.019438 0.016805 0.009275 0.015649 0.013681 0.007862 -0.008328 -0.025011 -0.058952 -0.099140 -0.136571 -0.141386 -0.123907 -0.176754 -0.142219 -0.100866 -0.068053 -0.107446 -0.094422 -0.056002 -0.033119 -0.005648 -0.008238 -0.008042 0.004022 0.016644 0.005382 0.004240 0.004469 0.005989 0.013359 0.015589 0.013197 0.003356 0.010980 0.006495 -0.022241 -0.060082 -0.092575 -0.072079 -0.074216 -0.093764 -0.077490 -0.086081 -0.082052 -0.069266 -0.050955 -0.040275 -0.026245 -0.007708 -0.004899 -0.005374 0.009227 0.008792 0.010111 0.019490 0.003660 0.003501 0.005605 0.017599 0.016642 0.004356 0.010590 0.012357 -0.015323 -0.049575 -0.069159 -0.051789 -0.071679 -0.081677 -0.084056 -0.080595 -0.037541 -0.051944 -0.045615 -0.013012 -0.001194 -0.006266 0.004267 0.007464 0.002594 0.006807 0.010701 0.005317 0.012886 0.006365 0.016783 0.013239 0.007438 0.005644 0.008200 0.008733 -0.008129 -0.048612 -0.064840 -0.092739 -0.086914 -0.039522 -0.040137 -0.008125 -0.003718 -0.049204 -0.010925 -0.006080 0.012436 0.013566 0.008248 0.003837 0.003007 0.015996 0.010598 0.011529 0.006744 0.010984 0.018349 0.012670 0.002208 0.014236 0.006391 -0.013473 -0.015198 -0.029244 -0.027168 -0.043871 -0.041435 -0.004296 0.008484 0.010748 0.004731 -0.017393 0.002964 0.017815 0.006722 0.016743 0.018046 0.019833 0.013137 0.013725 0.019087 0.003117 0.012078 0.006252 0.003712 0.005564 0.009678 0.002197 0.019048 -0.006069 -0.013899 -0.014333 -0.023187 -0.002061 0.010142 0.010870 0.005811 0.005150 -0.003143 -0.006230 -0.001685 0.008876 0.002526 0.014683 0.015552 0.006289 0.013770 0.007257 0.016406 0.018201 0.002672 0.018078 0.016917 0.016123 0.011098 0.019533 0.019133 0.007775 0.009429 0.018366 0.011484 0.004664 0.018833 0.001725 0.004869 0.005625 0.008516 0.008173 0.008883 0.007775 0.002285 0.005331 0.008439 0.003714 0.008475 0.004461 0.011803 0.019619
0.013783 0.019307 0.018271 0.013874 0.015141 0.004789 0.015211 0.005405 0.019152 0.003566 0.009019 0.005119 0.019901 0.010648 0.018791 0.012692 0.004287 0.012416 0.010559 0.007701 0.017979 0.014054 0.019560 0.002989 0.002845 0.017579 0.006360 0.009667 0.014407 0.016719 0.015834 0.015499 0.009555 0.017717 0.009064 0.005471 0.003631 0.012148 0.002416 0.012301 0.011420 0.018903 0.004960 0.015231 0.014026 0.015110 0.010852 0.005767 0.014989 0.001845 0.008080 0.014426 0.003055 0.017503 0.003273 0.011174 0.018975 0.015397 0.014091 0.003329 0.011436 0.015762 0.012539 0.014936 0.007276 0.014562 0.008203 0.005790 0.008080 0.015679 0.007727 0.002736 0.007407 0.024127 0.010308 0.005871 0.018324 0.010803 0.014876 0.010083 0.013366 0.015588 0.004293 0.003217 0.010116 0.003163 0.010794 0.014771 0.006486 0.009766 0.009238 0.019305 0.012606 0.006599 -0.003365 0.009980 0.010074 -0.007946 -0.048185 -0.033198 -0.029701 -0.004833 -0.013636 -0.024271 -0.022653 0.000782 0.014429 0.007307 0.009875 0.012395 0.011208 0.012028 0.018302 0.010207 0.008149 0.008364 0.005452 0.017992 0.011828 0.017485 0.006045 0.004360 0.000159 0.005486 -0.001495 -0.045278 -0.054414 -0.090794 -0.058866 -0.042841 -0.074218 -0.077029 -0.045358 -0.011749 0.031229 0.022463 0.017725 0.012812 0.007838 0.003241 0.012489 0.004152 0.007186 0.014416 0.016470 0.014772 0.015628 0.003336 0.010717 -0.002366 -0.013086 -0.001945 -0.050588 -0.079288 -0.075904 -0.104159 -0.077350 -0.098434 -0.091388 -0.085702 -0.029901 -0.008008 0.027978 0.028886 0.021534 0.015818 0.003110 0.017682 0.012781 0.005362 0.010538 0.009496 0.012615 0.000612 -0.003436 -0.015075 -0.027306 -0.066813 -0.071149 -0.103286 -0.119302 -0.081404 -0.070974 -0.109598 -0.101517 -0.101509 -0.116925 -0.095302 -0.041683 -0.004045 0.011608 0.008897 0.002716 -0.006147 0.005664 0.013138 0.005058 0.015195 0.016069 0.019086 -0.007270 -0.008959 -0.032972 -0.051372 -0.054920 -0.086123 -0.123812 -0.134931 -0.121993 -0.111554 -0.102947 -0.143951 -0.142255 -0.163476 -0.142189 -0.113926 -0.041340 -0.025915 -0.014665 -0.003572 -0.018633 -0.011752 0.014411 0.002265 0.007907 0.019062 0.004181 0.016159 0.011381 0.000905 -0.039256 -0.061765 -0.080938 -0.089181 -0.113692 -0.074468 -0.078848 -0.111075 -0.126107 -0.185656 -0.185848 -0.188860 -0.149899 -0.110014 -0.044791 -0.048408 -0.041919 -0.020010 -0.003494 0.004117 0.020061 0.006178 0.019771 0.019146 0.006098 0.011902 -0.001955 -0.018822 -0.036545 -0.063120 -0.101082 -0.100080 -0.092694 -0.066208 -0.051607 -0.095618 -0.150969 -0.202852 -0.193451 -0.182063 -0.155497 -0.090078 -0.067725 -0.031001 -0.016763 -0.002950 0.002728 0.006706 0.011200 0.002610 0.003653 0.010597 0.017395 0.005983 0.012191 -0.013983 -0.025059 -0.032701 -0.081460 -0.102676 -0.055190 -0.066881 -0.051838 -0.121669 -0.150516 -0.167669 -0.164236 -0.169102 -0.142640 -0.074586 -0.057122 -0.028297 -0.003969 -0.013786 -0.006269 0.012055 0.008382 0.009019 0.003994 0.011488 0.012931 0.009469 0.013426 -0.024177 -0.021060 -0.067306 -0.098086 -0.078400 -0.057616 -0.066672 -0.075953 -0.110162 -0.112697 -0.150589 -0.152090 -0.149238 -0.105053 -0.088527 -0.066790 -0.023196 -0.016576 -0.008498 -0.005109 0.004126 0.016698 0.015731 0.005528 0.002660 0.005198 0.009275 0.004537 -0.018217 -0.031358 -0.078587 -0.108234 -0.090057 -0.080531 -0.092305 -0.115829 -0.121443 -0.129088 -0.139205 -0.135943 -0.134324 -0.071779 -0.066125 -0.048942 -0.020421 -0.007806 -0.013609 0.002981 0.005789 0.003027 0.008333 0.009455 0.017848 0.011889 0.015378 0.001099 -0.010865 -0.047519 -0.077249 -0.111465 -0.109310 -0.079929 -0.107133 -0.129368 -0.131328 -0.163993 -0.157708 -0.146751 -0.135755 -0.080026 -0.082811 -0.051532 -0.015741 -0.015351 -0.011945 0.004705 0.002815 0.012470 0.010082 0.003949 0.009028 0.015849 0.006381 0.002111 -0.003115 -0.060772 -0.089951 -0.102406 -0.086822 -0.064644 -0.074933 -0.112866 -0.138607 -0.160333 -0.181818 -0.170950 -0.125949 -0.061586 -0.073246 -0.065979 -0.031255 -0.037704 -0.010923 -0.006303 0.018765 0.002165 0.017259 0.014421 0.011929 0.018717 -0.000933 0.007621 -0.019087 -0.040252 -0.068358 -0.111571 -0.101582 -0.074643 -0.063395 -0.088357 -0.134536 -0.165102 -0.164921 -0.122776 -0.103909 -0.074835 -0.077081 -0.083395 -0.029016 -0.001890 -0.010039 0.011101 0.004317 0.018803 0.014473 0.016920 0.006497 0.014990 0.012874 0.004216 -0.021866 -0.017319 -0.049984 -0.094159 -0.101052 -0.095080 -0.107157 -0.114216 -0.179529 -0.190852 -0.165368 -0.118704 -0.080582 -0.060261 -0.061678 -0.049605 -0.012451 -0.011915 -0.007159 0.005067 0.016874 0.009221 0.002553 0.010852 0.014835 0.010139 -0.001646 -0.028751 -0.037757 -0.028670 -0.045483 -0.079608 -0.123888 -0.138698 -0.105336 -0.123415 -0.180893 -0.173285 -0.149790 -0.099019 -0.060262 -0.042147 -0.049251 -0.046127 -0.032189 -0.008388 0.000753 -0.001171 0.003467 0.017083 0.002671 0.002686 0.008245 0.003235 -0.015913 -0.014282 -0.017065 -0.036027 -0.028697 -0.060358 -0.111526 -0.110922 -0.136578 -0.157225 -0.172633 -0.164069 -0.123070 -0.132042 -0.101021 -0.086318 -0.052379 -0.049227 -0.033511 -0.025668 -0.010192 0.005716 0.009342 0.018223 0.018578 0.018119 0.003910 0.002615 -0.011128 -0.013339 -0.011938 -0.022247 -0.041864 -0.067089 -0.089169 -0.108309 -0.107702 -0.153275 -0.189868 -0.190713 -0.160078 -0.184720 -0.130543 -0.078265 -0.076930 -0.058879 -0.038906 -0.040772 -0.006457 0.014219 0.018965 0.005636 0.003903 0.018901 0.013348 0.011694 -0.010950 -0.031501 -0.025250 -0.024459 -0.033187 -0.063736 -0.091199 -0.111751 -0.120399 -0.152287 -0.178985 -0.195766 -0.165126 -0.153227 -0.108015 -0.081195 -0.066313 -0.057634 -0.041135 -0.042200 -0.011082 0.008747 0.010584 0.010530 0.019236 0.003155 0.006611 0.008758 0.016870 -0.008523 -0.034886 -0.028014 -0.034329 -0.075966 -0.099613 -0.108968 -0.099855 -0.103297 -0.154663 -0.161701 -0.138456 -0.079692 -0.060135 -0.044029 -0.033357 -0.038282 -0.029520 -0.017395 -0.006047 0.004416 0.019620 0.013154 0.019391 0.013431 0.011071 0.015033 0.017889 -0.000645 -0.019060 -0.014204 -0.026685 -0.041570 -0.054782 -0.081860 -0.076164 -0.096513 -0.102633 -0.107112 -0.084989 -0.081451 -0.038650 -0.038902 -0.051269 -0.031704 -0.008982 -0.011882 -0.009852 0.008747 0.009355 0.003944 0.003743 0.010687 0.012826 0.015066 0.016131 0.002979 0.000396 -0.000958 -0.011820 -0.035848 -0.035983 -0.031481 -0.035009 -0.067624 -0.075335 -0.062995 -0.055175 -0.047451 -0.052488 -0.027877 -0.030106 -0.022133 -0.001292 0.008076 0.008201 0.002359 0.009074 0.010599 0.006040 0.006789 0.012141 0.003536 0.005276 0.001882 0.015194 0.015557 -0.008004 -0.005699 -0.029355 -0.032109 -0.052594 -0.043657 -0.028620 -0.033746 -0.007303 -0.011373 -0.027583 -0.004636 -0.001001 0.004274 0.009037 0.015648 0.015554 0.011466 0.004615 0.004632 0.008856 0.019960 0.015311 0.013971 0.018394 0.016166 0.004846 0.014308 0.007923 0.003182 -0.003855 -0.020530 -0.028602 -0.026576 0.004846 0.006014 0.004761 -0.015589 -0.005929 0.015194 0.003051 0.004576 0.017650 0.012065 0.006025 0.009296 0.019535 0.010483 0.019916 0.016217 0.012331 0.012930 0.018747 0.014388 0.008733 0.012144 0.018888 0.016455 0.002813 0.004296 -0.002334 0.012686 0.007068 -0.000255 -0.008875 -0.009074 -0.000415 0.002924 0.012942 0.000683 0.001242 0.019675 0.008789 0.005314 0.008536 0.019070 0.017748 0.002632 0.016343 0.010441 0.011240 0.014905 0.009655 0.012367 0.008185 0.007630 0.010519 0.017318 0.010416 0.008856 0.016454 0.011741 0.002937 0.006493 0.004734 0.018716 0.008138 0.004216 0.004244 0.011226 0.003436 0.012166 0.009379 0.017496 0.012297
0.019563 0.007547 0.004674 0.017541 0.003701 0.019642 0.015824 0.004441 0.011694 0.019329 0.016830 0.010689 0.007622 0.011793 0.017970 0.007108 0.014284 0.006749 0.010563 0.013359 0.017888 0.013469 0.013028 0.005441 0.013019 0.010864 0.010831 0.013618 0.015614 0.013501 0.004882 0.008890 0.011055 0.018565 0.016440 0.007719 0.015715 0.015351 0.005735 0.005969 0.003836 0.017296 0.017591 0.007597 0.007736 0.018669 0.006379 0.008315 0.006405 0.016606 0.012446 0.010600 0.004818 0.009499 0.004831 0.007689 0.015714 0.002887 0.016508 0.015351 0.006767 0.013636 0.011174 0.006355 0.016790 0.004213 0.009847 0.004832 0.014130 0.011128 -0.002148 -0.001309 0.008368 0.021883 0.011785 0.017009 0.007752 0.018364 0.004954 0.018095 0.018278 0.016356 0.019107 0.010131 0.003122 0.016779 0.011742 0.009899 0.017649 0.005945 0.003085 0.019370 0.018704 0.012210 0.003733 0.008156 0.015716 -0.014844 -0.072415 -0.047061 -0.025931 0.008694 0.004439 0.003545 -0.003819 0.013197 0.009504 0.010287 0.005741 0.013761 0.006660 0.016736 0.004046 0.008570 0.015545 0.008316 0.019660 0.013487 0.007575 0.017889 0.008371 -0.006956 0.002276 0.014018 0.006320 -0.077997 -0.083408 -0.100314 -0.085278 -0.058764 -0.039028 -0.033331 -0.009967 0.001892 0.016772 0.033954 0.014906 0.019219 0.004435 0.002683 0.019041 0.014016 0.018835 0.009295 0.004045 0.005797 0.002096 0.004312 0.007945 0.006847 -0.000306 -0.011982 -0.064414 -0.091233 -0.087548 -0.118183 -0.113680 -0.105883 -0.078673 -0.043278 -0.009827 0.007078 0.030423 0.016179 0.010868 0.015927 0.017329 0.003187 0.005156 0.016398 0.018871 0.013781 0.001434 0.008651 -0.011014 0.001376 0.005872 -0.026962 -0.067878 -0.108486 -0.109974 -0.095881 -0.089594 -0.132576 -0.116067 -0.093211 -0.106406 -0.093012 -0.033898 0.005907 0.000243 -0.000782 -0.004902 -0.003688 0.009568 0.002175 0.002357 0.013093 0.013774 0.006178 -0.001354 0.001390 -0.025657 -0.025747 -0.025975 -0.078946 -0.143393 -0.163484 -0.146291 -0.136960 -0.130621 -0.185668 -0.181864 -0.144346 -0.141491 -0.119010 -0.062289 -0.045997 -0.025930 -0.009234 -0.005617 -0.017439 0.012103 0.011486 0.013179 0.004022 0.007716 0.008567 0.003394 -0.019314 -0.028535 -0.037573 -0.053385 -0.082874 -0.139391 -0.116005 -0.113728 -0.126532 -0.146384 -0.216587 -0.199657 -0.169296 -0.147749 -0.116420 -0.078180 -0.065473 -0.022852 -0.021228 -0.002629 0.004469 0.004908 0.002000 0.003181 0.014207 0.006343 0.017309 -0.008012 -0.022068 -0.032385 -0.036463 -0.078649 -0.102930 -0.094760 -0.104372 -0.073826 -0.109201 -0.165356 -0.183161 -0.179153 -0.157353 -0.142973 -0.088783 -0.060223 -0.051259 -0.012700 -0.000737 -0.000547 0.003357 0.020086 0.015766 0.007807 0.003301 0.005655 0.010642 -0.011462 -0.018433 -0.035381 -0.035185 -0.076010 -0.073978 -0.065958 -0.079045 -0.047544 -0.112562 -0.123315 -0.151274 -0.141040 -0.160293 -0.123525 -0.076079 -0.063974 -0.032517 -0.019360 -0.007422 -0.007510 0.004534 0.010180 0.016651 0.010554 0.002616 0.017590 0.012960 -0.001324 -0.036950 -0.059895 -0.056438 -0.092145 -0.068634 -0.066082 -0.066380 -0.062356 -0.099882 -0.094569 -0.140020 -0.139262 -0.144464 -0.089926 -0.091308 -0.061341 -0.016855 -0.021068 -0.010559 0.010326 0.014142 0.001088 0.007774 0.011283 0.010121 0.015563 0.001998 0.001043 -0.020929 -0.039868 -0.052490 -0.080791 -0.070328 -0.098112 -0.077737 -0.078164 -0.100029 -0.117290 -0.154120 -0.130046 -0.138645 -0.084602 -0.075370 -0.044619 -0.026013 -0.019718 -0.007286 0.007855 0.014850 0.016205 0.018871 0.003375 0.002942 0.003986 0.013880 -0.004268 -0.016378 -0.041462 -0.061271 -0.089344 -0.113983 -0.101771 -0.089576 -0.113673 -0.129595 -0.165676 -0.158153 -0.149880 -0.121999 -0.103059 -0.095458 -0.063570 -0.023613 -0.022490 -0.003112 0.001167 0.015554 0.008919 0.010294 0.017849 0.005459 0.005085 0.014748 -0.015349 -0.010090 -0.036472 -0.060811 -0.064236 -0.103637 -0.071930 -0.068695 -0.111057 -0.150793 -0.169854 -0.189579 -0.160161 -0.113071 -0.086562 -0.081585 -0.066752 -0.026777 -0.030099 -0.004547 0.014661 0.014753 0.007889 0.012122 0.016070 0.013775 0.015502 0.003009 -0.012226 -0.015719 -0.031072 -0.067972 -0.105445 -0.112791 -0.090312 -0.060447 -0.093443 -0.144234 -0.177516 -0.174327 -0.116108 -0.088972 -0.066306 -0.044419 -0.060380 -0.026316 -0.021562 -0.025088 -0.003850 0.012515 0.005943 0.019783 0.007640 0.006473 0.018274 0.004721 -0.015716 -0.024406 -0.038408 -0.042094 -0.080628 -0.097620 -0.096592 -0.096062 -0.106405 -0.168533 -0.183838 -0.171266 -0.115956 -0.079183 -0.067748 -0.065026 -0.063889 -0.032074 -0.032473 -0.040845 -0.005089 0.017979 0.001636 0.010799 0.013148 0.016589 0.004717 0.010466 -0.020707 -0.048742 -0.036335 -0.041260 -0.039699 -0.086725 -0.104351 -0.083806 -0.107249 -0.166932 -0.162855 -0.136851 -0.113794 -0.104832 -0.065543 -0.077112 -0.089238 -0.063294 -0.037300 -0.023470 -0.014070 0.015932 0.019300 0.008395 0.002179 0.006486 0.013957 0.011724 -0.020146 -0.041121 -0.034596 -0.034307 -0.049890 -0.106663 -0.094391 -0.144044 -0.142971 -0.175446 -0.180173 -0.138101 -0.159539 -0.131364 -0.081301 -0.070114 -0.093961 -0.058426 -0.046304 -0.029704 -0.005937 0.003642 0.010548 0.007532 0.002528 0.017551 0.003057 0.005088 -0.005945 -0.033588 -0.026781 -0.041457 -0.064878 -0.090156 -0.115472 -0.135235 -0.172650 -0.201286 -0.202204 -0.143993 -0.162195 -0.122273 -0.074270 -0.075334 -0.056140 -0.030667 -0.037450 -0.012522 0.003032 0.017116 0.002102 0.007669 0.014818 0.010529 0.013331 0.007077 0.001554 -0.027479 -0.035709 -0.050922 -0.081085 -0.101673 -0.118529 -0.143143 -0.159919 -0.192302 -0.196972 -0.145864 -0.123982 -0.123340 -0.068772 -0.070184 -0.063772 -0.031102 -0.015187 -0.011878 0.010393 0.003230 0.009884 0.005404 0.007645 0.003449 0.011829 0.012853 0.006457 0.004742 -0.025560 -0.022858 -0.068314 -0.086845 -0.129338 -0.111792 -0.109394 -0.153853 -0.156108 -0.126602 -0.072600 -0.105007 -0.047425 -0.042454 -0.034926 -0.020769 -0.016158 -0.007798 0.006633 0.007639 0.014600 0.003656 0.006736 0.007714 0.002346 0.006053 0.006810 -0.005940 -0.013357 -0.007633 -0.018032 -0.048475 -0.068983 -0.091080 -0.102900 -0.123875 -0.107946 -0.086806 -0.076260 -0.048299 -0.051425 -0.041539 -0.024231 -0.013888 -0.011195 0.005361 -0.000768 0.007149 0.016796 0.009403 0.012016 0.004923 0.006880 0.009270 0.008884 0.007837 -0.009030 -0.016950 -0.023887 -0.029121 -0.023561 -0.036593 -0.062662 -0.084589 -0.071353 -0.058016 -0.027108 -0.052401 -0.035503 -0.035421 -0.023002 -0.013629 -0.008761 0.004283 0.000124 0.011365 0.007604 0.018854 0.005628 0.009805 0.008987 0.003103 0.018284 0.002110 0.000752 0.006227 -0.014676 -0.038208 -0.049571 -0.075170 -0.056974 -0.045531 -0.023818 -0.007274 -0.010302 -0.033232 -0.009420 0.007434 -0.000854 0.012230 0.013920 0.008544 0.005096 0.019555 0.013526 0.007688 0.003891 0.005856 0.012923 0.014507 0.013423 0.012664 0.002847 0.003633 -0.018585 -0.016493 -0.020611 -0.057592 -0.030613 -0.007098 0.001286 -0.001729 0.009094 0.008009 0.026571 0.018467 0.003805 0.014116 0.018065 0.007215 0.019340 0.005460 0.009724 0.014368 0.013742 0.012722 0.006036 0.018553 0.010138 0.011931 0.010252 0.003818 -0.005966 -0.011307 0.006998 -0.004892 -0.000398 0.009440 -0.001087 0.007197 -0.008476 -0.011449 -0.004415 0.015951 0.016018 0.004790 0.007017 0.018725 0.002814 0.019952 0.011152 0.002645 0.005532 0.019470 0.016863 0.006478 0.008379 0.010849 0.010931 0.018334 0.018074 0.006030 0.006758 0.009553 0.014237 0.009867 0.017120 0.003226 0.004057 0.005529 0.005583 0.017858 0.018405 0.014630 0.003365 0.010592 0.006141 0.017580 0.008771 0.014114
0.016998 0.014925 0.008265 0.007554 0.013161 0.006037 0.007222 0.019589 0.018913 0.015761 0.018776 0.013816 0.010529 0.004675 0.013892 0.004017 0.002099 0.008737 0.005594 0.008279 0.010854 0.004346 0.015791 0.008247 0.014018 0.017694 0.008940 0.013025 0.011136 0.003689 0.019300 0.004021 0.019214 0.019372 0.007802 0.011394 0.014978 0.018486 0.008430 0.002802 0.007138 0.005363 0.003190 0.005408 0.004077 0.009828 0.018723 0.002931 0.015524 0.002521 0.008786 0.004733 0.016684 0.013702 0.013844 0.014450 0.016298 0.003960 0.017584 0.002408 0.015666 0.010369 0.019775 0.006653 0.015849 0.013101 0.016856 0.001554 0.001199 0.002123 -0.003261 -0.006440 0.000785 0.010950 0.001779 0.010986 0.015922 0.002493 0.011177 0.006757 0.010837 0.010808 0.003835 0.017189 0.002056 0.019093 0.016306 0.016506 0.008017 0.005585 0.009558 0.002995 0.015331 0.000643 0.007602 0.002023 0.004381 -0.004145 -0.046536 -0.021096 -0.017980 -0.005483 0.001622 -0.003224 -0.000966 0.001079 0.004869 0.018647 0.017388 0.004226 0.017668 0.006340 0.015444 0.011989 0.014329 0.017044 0.014710 0.003576 0.006991 0.017028 0.002542 0.001359 -0.000621 0.001738 0.003235 -0.047317 -0.060341 -0.096753 -0.071048 -0.041169 -0.052519 -0.062224 -0.028481 -0.000988 0.031204 0.025478 0.022511 0.015442 0.015075 0.004630 0.011012 0.012266 0.012499 0.016372 0.014724 0.015482 0.016998 0.004104 0.010209 0.003477 -0.014711 -0.022794 -0.068109 -0.088631 -0.071256 -0.111517 -0.084692 -0.091570 -0.091384 -0.065790 -0.008161 0.003942 0.027940 0.029184 0.009390 0.016984 0.015807 0.002999 0.016649 0.011977 0.013443 0.012379 0.011365 -0.001012 -0.004394 0.000093 -0.030213 -0.066219 -0.072202 -0.103214 -0.099756 -0.078970 -0.085518 -0.115410 -0.100898 -0.087950 -0.114930 -0.087800 -0.040060 0.006746 0.010141 0.011940 -0.012081 -0.004077 0.006287 0.006629 0.002354 0.014652 0.005354 0.004308 -0.008784 -0.010904 -0.037834 -0.054112 -0.046808 -0.088362 -0.139700 -0.136802 -0.118383 -0.114997 -0.097987 -0.145896 -0.149893 -0.147620 -0.139010 -0.114056 -0.045077 -0.033165 -0.025040 -0.007370 -0.019836 -0.016149 0.006604 0.006114 0.014090 0.014380 0.007658 0.016256 0.001162 -0.024203 -0.037334 -0.061286 -0.079205 -0.090363 -0.125742 -0.101505 -0.091454 -0.122598 -0.151150 -0.178312 -0.185370 -0.180926 -0.141933 -0.097516 -0.060957 -0.052519 -0.023514 -0.019823 0.003553 0.013461 0.019610 0.005139 0.003696 0.013457 0.003732 0.010906 0.012375 -0.021836 -0.036575 -0.063962 -0.091466 -0.113088 -0.099241 -0.074294 -0.076180 -0.101088 -0.154301 -0.189326 -0.170920 -0.172437 -0.141576 -0.081527 -0.041901 -0.025308 -0.015552 -0.015490 0.004469 0.015926 0.006177 0.019174 0.003493 0.012865 0.004576 0.019150 0.006808 -0.027664 -0.047855 -0.029430 -0.071523 -0.098429 -0.056581 -0.074299 -0.044234 -0.115159 -0.128514 -0.149799 -0.151213 -0.177784 -0.135476 -0.074470 -0.043524 -0.018819 -0.003734 -0.020152 0.002427 0.002900 0.006090 0.019127 0.011769 0.019573 0.006868 0.000926 -0.002939 -0.042118 -0.039117 -0.055168 -0.076229 -0.067499 -0.050553 -0.069274 -0.052670 -0.113889 -0.113618 -0.149154 -0.158357 -0.163445 -0.107908 -0.080820 -0.044108 -0.019215 -0.001213 -0.009875 -0.002015 0.003545 0.005521 0.015528 0.012695 0.004869 0.001886 0.008326 0.004743 -0.024571 -0.037966 -0.055346 -0.077932 -0.066896 -0.066502 -0.077592 -0.092133 -0.115638 -0.135613 -0.158705 -0.144776 -0.154010 -0.072438 -0.077034 -0.034981 -0.017151 0.001736 -0.006982 0.003428 0.018979 0.006005 0.012247 0.005224 0.007552 0.009944 0.005422 -0.000385 0.000450 -0.040000 -0.060229 -0.086617 -0.106932 -0.086629 -0.107294 -0.139156 -0.137753 -0.165336 -0.163510 -0.153445 -0.139465 -0.094525 -0.077511 -0.035124 -0.008426 -0.002394 -0.012463 -0.004960 0.016127 0.017338 0.014286 0.008083 0.017360 0.013874 0.006604 -0.004318 0.007119 -0.040532 -0.063582 -0.083906 -0.092354 -0.056774 -0.071101 -0.123308 -0.141823 -0.166792 -0.201330 -0.172736 -0.116073 -0.066365 -0.068567 -0.044147 -0.017809 -0.015046 -0.014213 0.005483 0.003500 0.013980 0.016782 0.003831 0.008149 0.014663 0.000355 -0.001843 -0.003372 -0.041076 -0.082511 -0.126458 -0.112431 -0.088184 -0.086494 -0.085875 -0.127834 -0.170853 -0.175065 -0.134309 -0.096589 -0.070567 -0.045013 -0.065696 -0.029880 -0.002832 -0.016342 -0.003587 0.016516 0.007879 0.010615 0.003838 0.017608 0.011790 0.003124 0.001631 -0.019175 -0.033862 -0.060379 -0.102401 -0.098337 -0.103501 -0.121937 -0.116757 -0.184185 -0.186563 -0.166639 -0.129810 -0.091468 -0.084046 -0.057870 -0.043080 -0.032785 -0.030204 -0.026144 -0.016780 0.010403 0.002211 0.004260 0.019322 0.013572 0.013503 0.006393 -0.015845 -0.035807 -0.044864 -0.046644 -0.065287 -0.114470 -0.114598 -0.104007 -0.126185 -0.189819 -0.179773 -0.158151 -0.113552 -0.079569 -0.063289 -0.075096 -0.075999 -0.039353 -0.029450 -0.014989 -0.016563 0.010844 0.009713 0.016845 0.014040 0.003431 0.007303 0.003314 0.000719 -0.033552 -0.041017 -0.045202 -0.051446 -0.088559 -0.085015 -0.110987 -0.152581 -0.181817 -0.176714 -0.133773 -0.147775 -0.111102 -0.090359 -0.078247 -0.088140 -0.068977 -0.030850 -0.013477 -0.014292 0.014517 0.017138 0.002634 0.007523 0.018371 0.006789 -0.004670 -0.010813 -0.033624 -0.040755 -0.038145 -0.051046 -0.103316 -0.106911 -0.103271 -0.156589 -0.187340 -0.179637 -0.143128 -0.176646 -0.109390 -0.074227 -0.074331 -0.053300 -0.051705 -0.042307 -0.006261 0.016655 0.009426 0.012739 0.013612 0.006498 0.018914 0.004605 0.002312 -0.006497 -0.024489 -0.033040 -0.053033 -0.069711 -0.107741 -0.108954 -0.118785 -0.146385 -0.185577 -0.181592 -0.157444 -0.130564 -0.102629 -0.077945 -0.062823 -0.054042 -0.039800 -0.038045 -0.011293 0.004629 0.010897 0.019266 0.007079 0.002259 0.017782 0.016877 0.005995 0.002364 -0.010255 -0.021232 -0.028207 -0.074026 -0.087899 -0.108879 -0.103651 -0.110850 -0.171679 -0.163132 -0.134521 -0.068870 -0.061026 -0.048821 -0.051380 -0.048622 -0.026061 -0.010971 -0.007687 0.011653 0.005619 0.003664 0.004667 0.012703 0.007386 0.010115 0.017829 0.009157 -0.005288 -0.005610 -0.024507 -0.037193 -0.050328 -0.068520 -0.076871 -0.102486 -0.104931 -0.110040 -0.082246 -0.078624 -0.047794 -0.050681 -0.048178 -0.051847 -0.012559 -0.018722 0.002139 0.009463 0.013242 0.004537 0.017842 0.004483 0.008386 0.012617 0.012884 0.008962 0.005537 -0.009193 -0.010789 -0.039080 -0.030410 -0.015599 -0.036705 -0.064510 -0.087673 -0.069135 -0.058798 -0.044372 -0.061022 -0.031211 -0.036720 -0.015981 -0.013959 0.002099 0.001023 0.008058 0.010140 0.005416 0.002650 0.013083 0.002794 0.012712 0.009010 0.014014 0.010857 -0.000513 0.007889 -0.005100 -0.020670 -0.042109 -0.051060 -0.042388 -0.015247 -0.042470 -0.026779 -0.023926 -0.026305 -0.002260 -0.003683 -0.000181 0.007414 0.004630 0.011021 0.002939 0.006985 0.002546 0.005092 0.011180 0.002627 0.009518 0.018552 0.005460 0.018728 0.007530 0.005950 -0.000187 -0.009905 -0.007311 -0.027077 -0.016301 -0.002169 0.006016 0.002844 -0.010560 -0.001497 0.008177 0.013139 0.001859 0.006189 0.014144 0.014548 0.011228 0.002279 0.015081 0.012143 0.002154 0.013201 0.014312 0.005283 0.011199 0.019829 0.006698 0.006469 0.010395 0.004988 0.002004 -0.003352 0.005122 0.011424 0.002996 -0.003052 -0.008280 -0.013249 0.015823 0.018459 0.015942 0.001332 0.017440 0.019226 0.019407 0.006033 0.019824 0.011282 0.006809 0.019667 0.010762 0.018633 0.013321 0.007549 0.018067 0.006794 0.012467 0.005096 0.016290 0.008951 0.019362 0.017414 0.002134 0.009865 0.012286 0.011471 0.002167 0.010142 0.019727 0.016051 0.019992 0.009010 0.019492 0.006099 0.015851 0.005975
0.019214 0.010963 0.018940 0.004784 0.010219 0.017152 0.019571 0.002547 0.004011 0.009365 0.014607 0.011841 0.003227 0.017940 0.015260 0.019079 0.019728 0.013181 0.011005 0.013214 0.014648 0.015774 0.018044 0.012393 0.013387 0.011638 0.007124 0.008485 0.005202 0.008572 0.017263 0.011769 0.006751 0.010951 0.010048 0.010470 0.012625 0.016228 0.014426 0.003713 0.005803 0.014745 0.002233 0.005427 0.007772 0.002175 0.006594 0.010425 0.015815 0.013125 0.015250 0.017737 0.018066 0.012514 0.011938 0.002049 0.016589 0.006291 0.009832 0.012517 0.006323 0.013324 0.016265 0.011093 0.007957 0.008663 0.008671 0.016417 0.005491 0.012368 0.008121 0.001314 0.008656 0.009020 0.010279 0.005567 0.004205 0.016491 0.016195 0.005196 0.008358 0.014024 0.003101 0.005126 0.010990 0.015874 0.003340 0.018999 0.007045 0.012993 0.017439 0.004082 0.010180 0.002720 0.003684 0.006826 -0.000437 -0.008098 -0.052988 -0.027351 -0.018979 -0.006573 -0.001561 -0.014711 -0.002492 0.002042 0.006453 0.003906 0.018532 0.002957 0.003866 0.012576 0.010459 0.002279 0.017815 0.010057 0.016293 0.004795 0.013962 0.015338 0.006528 -0.000593 -0.005916 0.009833 -0.000667 -0.052318 -0.059234 -0.081479 -0.058475 -0.033878 -0.067236 -0.053187 -0.018155 -0.003779 0.024720 0.033124 0.022079 0.021511 0.006881 0.012639 0.016790 0.010699 0.014703 0.005882 0.015819 0.015299 0.003764 0.001911 0.011475 0.005813 -0.024440 -0.018924 -0.064685 -0.082980 -0.081006 -0.106793 -0.093505 -0.101543 -0.089002 -0.068674 -0.015425 0.005559 0.030558 0.018314 0.011622 0.012026 0.014889 0.016052 0.012556 0.016391 0.003780 0.018807 0.015260 0.005942 -0.008508 0.005063 -0.020239 -0.061049 -0.070043 -0.107905 -0.109617 -0.089538 -0.070255 -0.108541 -0.094661 -0.100353 -0.109066 -0.098931 -0.038556 0.001743 -0.000762 0.009602 -0.007789 -0.002830 0.002327 0.013996 0.012673 0.003367 0.006033 0.011639 0.001656 -0.010214 -0.038023 -0.039257 -0.052378 -0.083899 -0.126154 -0.146574 -0.118127 -0.112143 -0.107078 -0.158885 -0.152472 -0.140692 -0.146500 -0.113726 -0.045855 -0.042753 -0.017935 -0.020241 -0.006031 -0.012047 0.008071 0.008776 0.011616 0.010062 0.018495 0.009384 0.015168 -0.015886 -0.048205 -0.052434 -0.076246 -0.082810 -0.116543 -0.089228 -0.091983 -0.132951 -0.149580 -0.192450 -0.186838 -0.169138 -0.139021 -0.101483 -0.048356 -0.046558 -0.033571 -0.013831 -0.007907 0.013952 0.017228 0.010976 0.010482 0.012756 0.018038 0.015205 -0.000119 -0.032853 -0.047164 -0.061572 -0.083006 -0.110022 -0.097605 -0.084813 -0.071668 -0.107521 -0.153992 -0.185396 -0.185332 -0.175038 -0.150466 -0.076066 -0.049991 -0.033310 -0.010814 -0.006991 0.006098 0.001259 0.020526 0.016109 0.009097 0.008991 0.018352 0.018436 0.005940 -0.026292 -0.032380 -0.036652 -0.068416 -0.090194 -0.051607 -0.061024 -0.041805 -0.114995 -0.125378 -0.149555 -0.147553 -0.182349 -0.149723 -0.073487 -0.053836 -0.023045 -0.008758 -0.014870 -0.012602 0.010646 0.015046 0.003510 0.004106 0.004760 0.008905 0.013997 0.001608 -0.041875 -0.037841 -0.056688 -0.087602 -0.076472 -0.049819 -0.066556 -0.052166 -0.106230 -0.108802 -0.153041 -0.149134 -0.165347 -0.104595 -0.079017 -0.058641 -0.016367 -0.016483 -0.009108 0.004594 0.006829 0.016255 0.007057 0.007096 0.017645 0.016536 0.002733 0.013121 -0.034545 -0.049339 -0.053962 -0.076141 -0.072756 -0.073636 -0.081034 -0.091332 -0.128197 -0.126170 -0.153480 -0.145816 -0.144289 -0.083605 -0.078008 -0.033782 -0.005869 -0.009066 -0.004593 -0.003393 0.014613 0.011999 0.016055 0.014961 0.019184 0.008910 0.013106 -0.000038 -0.003386 -0.043393 -0.056780 -0.092772 -0.104601 -0.088790 -0.099683 -0.142545 -0.131014 -0.166546 -0.154416 -0.162150 -0.137243 -0.091370 -0.074042 -0.033425 -0.007005 -0.011746 -0.004951 -0.006333 0.011680 0.003138 0.009478 0.003469 0.006741 0.017445 -0.001986 0.001491 -0.005368 -0.041923 -0.063661 -0.094323 -0.090347 -0.061373 -0.077536 -0.124684 -0.153723 -0.165397 -0.187333 -0.169354 -0.110852 -0.069851 -0.062669 -0.061280 -0.014768 -0.027037 -0.006133 0.006235 0.019138 0.013439 0.002615 0.017411 0.013114 0.004632 0.010033 0.003100 -0.004430 -0.038124 -0.078087 -0.122942 -0.107882 -0.083446 -0.079184 -0.083648 -0.137915 -0.160087 -0.177001 -0.128633 -0.105431 -0.075038 -0.054670 -0.055847 -0.019362 -0.011350 -0.005754 -0.004690 0.012123 0.008861 0.008447 0.019606 0.004839 0.010934 0.011285 0.000669 -0.015561 -0.020545 -0.057338 -0.107881 -0.099952 -0.098804 -0.119411 -0.125277 -0.193024 -0.187065 -0.178061 -0.115960 -0.082407 -0.075356 -0.069502 -0.047154 -0.032823 -0.032086 -0.024338 -0.005020 0.018036 0.006706 0.011309 0.018172 0.016620 0.009373 0.011039 -0.014306 -0.040192 -0.049545 -0.035955 -0.054742 -0.114283 -0.114973 -0.104430 -0.133426 -0.186735 -0.187742 -0.149763 -0.114053 -0.088695 -0.059682 -0.068918 -0.082402 -0.054812 -0.021358 -0.024675 -0.016176 0.003758 0.004099 0.017792 0.019528 0.003222 0.002199 -0.004984 -0.000661 -0.029893 -0.043415 -0.035378 -0.043463 -0.093592 -0.099100 -0.126460 -0.139942 -0.169341 -0.167847 -0.137749 -0.142825 -0.114073 -0.088208 -0.077038 -0.080993 -0.062876 -0.023981 -0.019066 -0.003712 0.011954 0.005678 0.003245 0.019726 0.008238 0.013698 -0.015033 -0.012011 -0.022684 -0.023786 -0.049515 -0.052999 -0.097634 -0.107823 -0.110953 -0.152244 -0.184666 -0.181753 -0.136475 -0.161051 -0.123404 -0.074525 -0.081199 -0.053361 -0.049257 -0.029710 -0.009375 0.002759 0.011015 0.019575 0.003192 0.002885 0.012960 0.010239 -0.002916 -0.011302 -0.028745 -0.023811 -0.038872 -0.070686 -0.092567 -0.107015 -0.121831 -0.142026 -0.194387 -0.188088 -0.161290 -0.120481 -0.108809 -0.080614 -0.070483 -0.055638 -0.041466 -0.031143 -0.007689 0.006007 0.012131 0.008696 0.018717 0.003237 0.010057 0.018595 0.008120 0.000877 -0.012874 -0.020612 -0.035764 -0.065958 -0.097621 -0.106153 -0.095529 -0.119914 -0.158811 -0.164234 -0.132080 -0.080343 -0.061959 -0.046774 -0.050848 -0.051657 -0.035248 -0.020092 -0.010521 0.013141 0.016207 0.011331 0.006030 0.003631 0.003450 0.002919 0.014263 0.008726 -0.002027 -0.021762 -0.019089 -0.038182 -0.044070 -0.057531 -0.071737 -0.105109 -0.107445 -0.097118 -0.086926 -0.062530 -0.053856 -0.057346 -0.061178 -0.041866 -0.028726 -0.019231 -0.006301 0.008832 0.010283 0.018188 0.016245 0.005020 0.004115 0.005454 0.015418 0.014807 -0.001103 -0.003996 -0.013401 -0.029967 -0.033028 -0.018924 -0.036980 -0.073908 -0.082146 -0.070358 -0.064317 -0.045102 -0.051291 -0.035851 -0.035662 -0.027736 -0.006739 -0.007603 0.014615 0.013130 0.007165 0.011908 0.007090 0.010270 0.014288 0.014029 0.017932 0.018301 0.016289 0.003535 0.009658 -0.011042 -0.036534 -0.030480 -0.059346 -0.041179 -0.016454 -0.036675 -0.018318 -0.015003 -0.015490 -0.002605 0.004435 0.009264 0.016079 0.007969 0.010055 0.012095 0.006613 0.003223 0.016033 0.014100 0.010313 0.019821 0.008247 0.006986 0.009799 0.016515 0.004226 -0.008093 -0.000020 -0.010061 -0.026564 -0.019214 0.001302 0.009572 -0.004572 -0.009608 -0.007990 0.018979 0.012407 0.015087 0.016971 0.017695 0.014911 0.010401 0.007019 0.015415 0.015028 0.007242 0.017195 0.003538 0.011265 0.016490 0.013296 0.009487 0.013184 0.013588 0.011088 -0.004014 0.011573 0.004521 0.010556 0.004850 -0.009284 -0.016127 -0.010375 0.010452 0.018467 0.018090 0.002022 0.010586 0.003556 0.005941 0.013434 0.004888 0.015090 0.015766 0.005086 0.017967 0.008179 0.005117 0.010579 0.021495 0.018750 0.007889 0.019718 0.017736 0.006566 0.017221 0.014490 0.017273 0.010279 0.005315 0.018709 0.013986 0.010361 0.004391 0.012954 0.015859 0.003258 0.016970 0.017299 0.014225 0.011910
0.018120 0.014861 0.016087 0.013129 0.007356 0.007062 0.009805 0.006757 0.019133 0.010019 0.003596 0.017884 0.017343 0.017464 0.015438 0.013140 0.019744 0.008495 0.005570 0.011564 0.013739 0.005933 0.010327 0.008866 0.018121 0.019489 0.013614 0.010214 0.012783 0.009568 0.003728 0.013963 0.012087 0.009070 0.007958 0.015556 0.011880 0.005111 0.016134 0.015194 0.010795 0.014705 0.014426 0.011299 0.019455 0.013494 0.006846 0.019508 0.008143 0.018786 0.019988 0.002738 0.008671 0.003244 0.015170 0.005907 0.008010 0.004115 0.005170 0.014556 0.005362 0.017245 0.019157 0.004498 0.018400 0.011914 0.016622 0.011673 0.007621 0.012112 -0.004382 -0.000422 0.024767 0.021648 0.006142 0.017969 0.011455 0.017814 0.016737 0.003364 0.002962 0.011227 0.011435 0.011383 0.004703 0.002647 0.009732 0.019791 0.013291 0.002823 0.010034 0.008098 0.004709 0.007764 0.010816 0.021846 0.014629 -0.007704 -0.047927 -0.023989 0.009227 0.033745 0.005330 -0.007459 -0.001414 -0.003014 0.019023 0.005685 0.005770 0.013279 0.019144 0.017162 0.015560 0.019097 0.013838 0.012230 0.006109 0.011486 0.021367 0.017612 0.010309 0.006979 0.009994 0.006354 -0.003093 -0.034148 -0.066582 -0.064976 -0.038787 -0.023714 -0.034083 -0.042948 -0.020285 -0.011204 0.018696 0.019770 0.004138 0.008751 0.014466 0.004026 0.007721 0.012921 0.012215 0.019627 0.007487 0.019675 0.009502 -0.001589 0.008756 -0.000798 0.004666 0.004454 -0.036088 -0.050922 -0.064114 -0.081795 -0.074478 -0.113549 -0.103339 -0.083441 -0.044962 -0.019243 0.010320 0.008718 0.009533 0.002215 0.006321 0.007212 0.014831 0.008512 0.009210 0.011125 -0.000604 -0.009135 -0.029898 -0.039663 -0.042127 -0.052001 -0.046293 -0.055457 -0.078295 -0.076150 -0.073883 -0.115174 -0.121208 -0.136537 -0.135833 -0.102670 -0.057634 -0.046605 -0.034570 -0.009475 -0.009697 -0.007960 0.013157 0.006875 0.014861 0.017832 0.014832 0.010386 -0.014996 -0.010978 -0.033488 -0.032512 -0.033053 -0.051175 -0.068991 -0.089862 -0.144030 -0.160529 -0.124033 -0.180259 -0.163844 -0.141201 -0.130930 -0.128512 -0.088774 -0.086071 -0.078307 -0.029124 -0.015652 -0.004137 0.012084 0.012516 0.005722 0.006465 0.018426 0.017469 0.003550 0.003747 -0.031039 -0.019729 -0.034125 -0.060841 -0.070696 -0.110357 -0.144254 -0.175236 -0.144773 -0.163240 -0.167939 -0.163501 -0.121790 -0.096447 -0.078798 -0.074130 -0.056587 -0.029296 0.003824 0.009471 0.019253 0.016952 0.007566 0.014438 0.005321 0.015129 0.015272 -0.023942 -0.036016 -0.042450 -0.030187 -0.068408 -0.116871 -0.115534 -0.107625 -0.108732 -0.104065 -0.165739 -0.167643 -0.158145 -0.136965 -0.072331 -0.080062 -0.045590 -0.041154 -0.006358 0.005198 0.001383 0.004720 0.013526 0.011988 0.013923 0.017800 0.015646 0.004493 -0.019270 -0.041891 -0.021107 -0.031194 -0.076807 -0.104704 -0.132231 -0.081162 -0.073903 -0.099490 -0.139970 -0.152667 -0.159427 -0.150968 -0.078289 -0.060046 -0.028529 -0.004092 -0.011123 0.010291 -0.001646 0.006850 0.017897 0.011977 0.004905 0.008071 0.018320 0.003108 -0.025033 -0.030425 -0.039180 -0.062842 -0.078699 -0.131209 -0.109713 -0.047056 -0.093586 -0.092336 -0.147058 -0.150099 -0.151596 -0.129056 -0.102166 -0.062914 0.003786 -0.002781 -0.006210 -0.001806 0.015597 0.006365 0.013235 0.003103 0.002937 0.014744 0.003144 0.015423 -0.021729 -0.046047 -0.065596 -0.077492 -0.116713 -0.120621 -0.106188 -0.123197 -0.119514 -0.133628 -0.160464 -0.118747 -0.137173 -0.111573 -0.090423 -0.038750 0.016452 0.009559 -0.007825 -0.002252 0.013278 0.011285 0.017899 0.007261 0.002438 0.006197 0.014979 0.008933 0.007548 -0.036574 -0.070009 -0.089525 -0.146851 -0.122469 -0.144940 -0.151464 -0.158532 -0.160275 -0.142223 -0.121632 -0.126914 -0.107214 -0.067359 -0.015909 0.003927 0.011082 0.009399 0.005490 0.011864 0.015820 0.017060 0.016105 0.009194 0.018865 0.011778 0.006328 -0.007014 -0.051950 -0.067331 -0.097414 -0.126762 -0.063276 -0.079461 -0.131210 -0.153839 -0.138143 -0.180692 -0.166529 -0.159504 -0.081501 -0.038858 -0.022671 0.009364 0.006445 -0.000423 0.007391 0.018749 0.011932 0.010259 0.014135 0.013621 0.009957 0.004238 0.012463 -0.021800 -0.049535 -0.081477 -0.112832 -0.101874 -0.066755 -0.040893 -0.094187 -0.134716 -0.164777 -0.147607 -0.138115 -0.111365 -0.078908 -0.053741 -0.026808 -0.015612 -0.011929 0.003188 0.010808 0.010703 0.007391 0.013846 0.012445 0.004437 0.015874 0.014508 0.004177 -0.019985 -0.031837 -0.052748 -0.094767 -0.089594 -0.087164 -0.074790 -0.103532 -0.176174 -0.163666 -0.157289 -0.089362 -0.073414 -0.083540 -0.078731 -0.054471 -0.013712 -0.001488 -0.011280 0.008128 0.010791 0.015422 0.013956 0.005077 0.005074 0.018495 0.017629 -0.005686 -0.009975 -0.031149 -0.027833 -0.061964 -0.100897 -0.118720 -0.116791 -0.129951 -0.175241 -0.179263 -0.153587 -0.112361 -0.055666 -0.034224 -0.065608 -0.090663 -0.053042 -0.010198 -0.014268 -0.009800 0.004124 0.015929 0.002503 0.006368 0.016452 0.010002 0.010219 0.013780 0.003464 -0.015871 -0.032816 -0.062791 -0.089183 -0.100383 -0.126267 -0.135132 -0.137002 -0.150251 -0.137608 -0.137090 -0.080845 -0.066136 -0.069061 -0.059776 -0.059228 -0.013441 -0.009820 -0.003345 0.010419 0.002919 0.002523 0.008341 0.015814 0.010494 0.001403 0.009600 0.002904 -0.007651 -0.033287 -0.080214 -0.095211 -0.096006 -0.089401 -0.123638 -0.140230 -0.172681 -0.161768 -0.146879 -0.094517 -0.094077 -0.086016 -0.033205 -0.015872 -0.039493 -0.014657 0.008937 0.012657 0.002826 0.008836 0.007721 0.004448 0.009468 0.009097 0.000024 0.003386 -0.007296 -0.062430 -0.087839 -0.125405 -0.094419 -0.078761 -0.120738 -0.165918 -0.185277 -0.162937 -0.134555 -0.106126 -0.091042 -0.068804 -0.042265 -0.004769 -0.024626 -0.023046 0.005997 0.011306 0.005992 0.004514 0.002376 0.003265 0.007573 0.004040 0.006672 0.000559 -0.031288 -0.062288 -0.090939 -0.087077 -0.072728 -0.066520 -0.085929 -0.166539 -0.177476 -0.147705 -0.088787 -0.097663 -0.058529 -0.052033 -0.023560 0.007691 -0.011815 -0.038253 0.009246 0.008247 0.010116 0.010783 0.006760 0.004845 0.002484 0.018519 0.002358 0.000271 -0.025635 -0.063790 -0.064748 -0.047548 -0.067878 -0.089836 -0.140765 -0.136645 -0.124999 -0.074361 -0.070997 -0.102818 -0.083252 -0.061368 -0.041376 -0.016810 -0.019058 -0.013599 0.001284 0.001943 0.018679 0.012619 0.018761 0.017401 0.018113 0.017431 0.002146 0.002713 -0.023078 -0.065711 -0.075496 -0.065169 -0.051753 -0.064626 -0.100182 -0.086270 -0.061247 -0.013300 -0.047071 -0.067659 -0.054393 -0.056391 -0.019565 -0.021779 -0.004247 0.013679 0.014915 0.003436 0.004896 0.006248 0.008387 0.015732 0.013172 0.007148 0.007839 0.017250 0.002448 -0.014749 -0.024484 -0.056353 -0.059389 -0.076105 -0.040145 -0.003983 -0.012830 -0.017321 -0.044440 -0.046261 -0.022933 0.004494 0.007642 0.014232 0.005348 0.016686 0.003910 0.011531 0.013668 0.009299 0.003298 0.019905 0.011705 0.010678 0.011914 0.015143 0.017992 0.011880 0.000928 0.004997 -0.016866 -0.030394 -0.011450 0.006113 -0.014218 -0.020027 -0.040934 -0.022294 0.001668 0.002716 0.002937 0.006459 0.009003 0.005868 0.005450 0.018204 0.010711 0.011079 0.007410 0.004334 0.011746 0.005969 0.009245 0.014173 0.020339 0.023853 0.006908 0.012257 0.006306 0.015659 0.017030 0.020742 -0.005274 -0.012970 -0.006882 -0.005711 0.007439 0.003243 0.016065 0.013400 0.007774 0.002564 0.002777 0.016607 0.010125 0.006959 0.019843 0.009783 0.016029 0.012394 0.010537 0.019598 0.010522 0.008415 0.010075 0.002263 0.019461 0.019292 0.003865 0.009666 0.017910 0.018975 0.014292 0.012738 0.018109 0.011431 0.019025 0.012253 0.004737 0.008117 0.008369 0.017603 0.005859 0.014478
0.016982 0.003233 0.011873 0.013980 0.002853 0.018550 0.011790 0.002319 0.015374 0.011445 0.019008 0.012165 0.012064 0.006615 0.019314 0.013903 0.013682 0.017776 0.012730 0.002580 0.019794 0.008635 0.006343 0.006776 0.018002 0.010194 0.013069 0.003343 0.006020 0.002174 0.016130 0.005528 0.019029 0.015093 0.009042 0.005616 0.019790 0.013811 0.012674 0.009691 0.016125 0.008267 0.015524 0.009955 0.003711 0.006195 0.005331 0.016717 0.002526 0.012927 0.013745 0.009735 0.018180 0.005334 0.003548 0.002659 0.013150 0.004053 0.014074 0.018781 0.008494 0.011413 0.019131 0.014004 0.004961 0.004527 0.008366 0.017543 0.009997 -0.002353 -0.001045 0.005619 0.014819 0.029413 0.003659 0.016408 0.014991 0.016673 0.009343 0.004895 0.015620 0.004988 0.018836 0.009109 0.019606 0.008119 0.003681 0.011143 0.003767 0.019276 0.019549 0.014358 0.002188 0.006720 0.011204 0.009537 0.019420 -0.006615 -0.041902 -0.009678 0.009236 0.034882 0.008831 -0.002109 0.000915 0.003487 0.009292 0.010180 0.006467 0.007237 0.016597 0.015935 0.003685 0.011455 0.006213 0.014329 0.016444 0.009295 0.005713 0.017867 0.000218 -0.005219 0.004988 0.011633 -0.002584 -0.041998 -0.054566 -0.071980 -0.024809 -0.035059 -0.029020 -0.044294 -0.010174 -0.002377 0.017949 0.014673 0.011760 0.008726 0.016326 0.013799 0.015696 0.013738 0.004602 0.010046 0.019009 0.012787 0.001975 0.003787 0.007588 -0.000055 -0.004296 0.007654 -0.031493 -0.053377 -0.051096 -0.084592 -0.069477 -0.107117 -0.102737 -0.077980 -0.044793 -0.029191 -0.003062 0.016986 0.009282 0.014216 0.003576 0.011385 0.007212 0.015402 0.007583 0.011398 -0.000810 -0.017660 -0.021569 -0.031549 -0.028757 -0.052717 -0.044850 -0.067246 -0.081922 -0.087470 -0.079276 -0.112531 -0.120280 -0.144413 -0.134161 -0.100428 -0.057913 -0.053744 -0.035355 -0.001733 -0.003640 -0.015862 0.002113 0.015142 0.011846 0.019723 0.010971 0.015069 -0.011798 -0.019833 -0.028301 -0.035030 -0.027627 -0.043534 -0.067513 -0.090601 -0.145526 -0.149416 -0.123933 -0.179214 -0.162782 -0.146375 -0.133165 -0.128118 -0.081348 -0.068890 -0.067956 -0.019755 -0.007108 -0.010481 0.010486 0.009108 0.012923 0.019035 0.014763 0.003837 0.004982 -0.010678 -0.042163 -0.027238 -0.035186 -0.052404 -0.075797 -0.107837 -0.150179 -0.179509 -0.145326 -0.160565 -0.179882 -0.166666 -0.116143 -0.088417 -0.074996 -0.069372 -0.056462 -0.033852 -0.006665 0.007662 0.005595 0.008537 0.015794 0.009420 0.008909 0.004850 0.000480 -0.011882 -0.039167 -0.039175 -0.033147 -0.061890 -0.117847 -0.116959 -0.113029 -0.100299 -0.102123 -0.153817 -0.182207 -0.163700 -0.135739 -0.076542 -0.077446 -0.046498 -0.038638 0.000632 0.010505 0.009761 0.004842 0.003161 0.013118 0.016360 0.006350 0.013965 0.002735 -0.023426 -0.031232 -0.024687 -0.029626 -0.070224 -0.108801 -0.126675 -0.067545 -0.061117 -0.093458 -0.132059 -0.152326 -0.159365 -0.147390 -0.084856 -0.063047 -0.027274 -0.000106 -0.005693 -0.000964 0.010529 0.012204 0.016626 0.008631 0.006985 0.014888 0.008800 0.002566 -0.037535 -0.040364 -0.040370 -0.051496 -0.073996 -0.125486 -0.107840 -0.046637 -0.094318 -0.105793 -0.147429 -0.140988 -0.162680 -0.139806 -0.114629 -0.061079 0.007807 -0.001296 -0.010778 -0.005157 0.014403 0.010690 0.013411 0.004484 0.009308 0.011283 0.013555 0.003680 -0.017510 -0.051303 -0.060925 -0.084203 -0.115546 -0.128198 -0.107516 -0.110256 -0.103050 -0.137301 -0.159103 -0.126083 -0.133688 -0.116645 -0.079911 -0.044365 0.028669 -0.003044 0.001539 0.005178 0.002067 0.010613 0.017403 0.015081 0.019799 0.012084 0.012852 0.008325 0.014751 -0.050314 -0.061526 -0.089566 -0.154377 -0.119654 -0.138522 -0.152155 -0.156225 -0.175156 -0.127771 -0.117900 -0.126939 -0.099528 -0.075681 -0.018183 0.004264 -0.000188 0.002343 -0.002180 0.014886 0.009842 0.004664 0.017662 0.009501 0.005059 0.003149 0.011638 -0.003285 -0.054862 -0.076630 -0.107465 -0.118360 -0.066512 -0.090965 -0.129896 -0.149560 -0.139378 -0.173934 -0.160629 -0.156565 -0.068312 -0.046534 -0.020616 -0.005751 -0.003235 0.003272 0.006978 0.010068 0.003034 0.017162 0.015857 0.010902 0.019681 0.002845 0.001919 -0.012533 -0.050902 -0.081271 -0.125279 -0.110741 -0.059042 -0.051194 -0.089433 -0.132999 -0.163847 -0.144302 -0.136828 -0.117470 -0.076032 -0.056159 -0.036433 -0.021242 -0.002062 -0.010074 0.001929 0.003615 0.014744 0.017484 0.003376 0.004140 0.008165 0.001742 -0.004098 -0.021790 -0.035542 -0.055990 -0.086901 -0.084005 -0.072098 -0.074285 -0.104576 -0.173767 -0.151518 -0.160907 -0.098167 -0.072148 -0.069485 -0.071978 -0.046694 -0.017083 -0.011113 -0.006382 -0.004690 0.000503 0.005490 0.012133 0.006761 0.009498 0.016886 0.005265 0.010339 -0.018345 -0.032023 -0.028730 -0.047345 -0.097248 -0.117339 -0.112085 -0.127324 -0.178192 -0.182431 -0.152845 -0.122589 -0.052970 -0.034291 -0.069557 -0.085434 -0.048984 -0.001381 -0.009115 -0.010631 -0.004282 0.004605 0.018100 0.014887 0.005891 0.004630 0.002474 0.010180 -0.000989 -0.026039 -0.016997 -0.046670 -0.096281 -0.110697 -0.124249 -0.144948 -0.121053 -0.157314 -0.140637 -0.137184 -0.069010 -0.064913 -0.065246 -0.063650 -0.068831 -0.017378 -0.008907 -0.005976 -0.001286 0.006902 0.010540 0.008816 0.014674 0.008151 0.011384 0.006319 0.003017 -0.006077 -0.032780 -0.078905 -0.096627 -0.107753 -0.088755 -0.135285 -0.137583 -0.178066 -0.163186 -0.137613 -0.098843 -0.081392 -0.096245 -0.044098 -0.030506 -0.040518 -0.011821 0.001133 0.016652 0.018234 0.019916 0.009891 0.012917 0.013486 0.005489 0.010169 0.001344 -0.007635 -0.067084 -0.076133 -0.122480 -0.091380 -0.076700 -0.109618 -0.156830 -0.193942 -0.155789 -0.142408 -0.114623 -0.097268 -0.076816 -0.028877 -0.019906 -0.021028 -0.034963 0.006466 0.012087 0.003457 0.008049 0.015536 0.009755 0.014420 0.008610 0.011661 0.011029 -0.039302 -0.066657 -0.084094 -0.088169 -0.072635 -0.074615 -0.085586 -0.161324 -0.188437 -0.160176 -0.091628 -0.105643 -0.063273 -0.038688 -0.022403 -0.003832 -0.016708 -0.028273 0.013537 0.004691 0.008263 0.006198 0.018913 0.006631 0.008121 0.003393 0.014717 0.003051 -0.031009 -0.063793 -0.072494 -0.045679 -0.077724 -0.084379 -0.146847 -0.143221 -0.128906 -0.078792 -0.058588 -0.099645 -0.082622 -0.063071 -0.049597 -0.023606 -0.028147 -0.010941 0.012533 0.013221 0.018555 0.005298 0.008883 0.015189 0.011466 0.007499 0.016940 0.014505 -0.021959 -0.061113 -0.070559 -0.068761 -0.057704 -0.065370 -0.094541 -0.102594 -0.049738 -0.025285 -0.051894 -0.082621 -0.061573 -0.055249 -0.030950 -0.017256 0.005467 0.003936 0.009233 0.004069 0.015889 0.015283 0.003170 0.014621 0.014580 0.006806 0.012258 0.012454 -0.003361 -0.018266 -0.022226 -0.059473 -0.058059 -0.072917 -0.038678 0.000826 -0.014002 -0.016644 -0.040459 -0.052517 -0.019038 0.010132 0.003218 0.012153 0.005888 0.005021 0.000013 0.011594 0.004893 0.005340 0.002990 0.006984 0.014357 0.009140 0.012426 0.014598 0.007520 0.004870 0.013631 -0.000796 -0.011355 -0.020948 -0.014291 0.005172 -0.004915 -0.019368 -0.033406 -0.031296 0.010566 0.016223 0.005749 0.012753 0.010142 0.004083 0.019485 0.005631 0.011712 0.003443 0.007847 0.009875 0.010444 0.011735 0.015367 0.015316 0.003689 0.017913 0.017012 0.014191 0.006084 0.001260 0.015653 0.022389 -0.002337 -0.021799 -0.008350 0.004675 0.015274 0.007762 0.000543 0.010711 0.005870 0.002249 0.006080 0.009608 0.010478 0.002048 0.017995 0.006874 0.018715 0.015079 0.002981 0.005737 0.011289 0.012503 0.008247 0.019784 0.007710 0.007600 0.003396 0.011138 0.012484 0.016142 0.010752 0.008968 0.013021 0.017549 0.003946 0.004852 0.013531 0.004394 0.011162 0.005606 0.009645 0.009293
